{"learner":{"attributes":{"best_iteration":"99","best_ntree_limit":"100","scikit_learn":"{\"use_label_encoder\": null, \"n_estimators\": 100, \"objective\": \"multi:softprob\", \"max_depth\": null, \"max_leaves\": null, \"max_bin\": null, \"grow_policy\": null, \"learning_rate\": null, \"verbosity\": null, \"booster\": null, \"tree_method\": null, \"gamma\": null, \"min_child_weight\": null, \"max_delta_step\": null, \"subsample\": null, \"sampling_method\": null, \"colsample_bytree\": null, \"colsample_bylevel\": null, \"colsample_bynode\": null, \"reg_alpha\": null, \"reg_lambda\": null, \"scale_pos_weight\": null, \"base_score\": null, \"missing\": NaN, \"num_parallel_tree\": null, \"random_state\": null, \"n_jobs\": null, \"monotone_constraints\": null, \"interaction_constraints\": null, \"importance_type\": null, \"gpu_id\": null, \"validate_parameters\": null, \"predictor\": null, \"enable_categorical\": false, \"feature_types\": null, \"max_cat_to_onehot\": null, \"max_cat_threshold\": null, \"eval_metric\": null, \"early_stopping_rounds\": null, \"callbacks\": null, \"classes_\": [0, 1, 2, 3, 4, 5, 6], \"n_classes_\": 7, \"_estimator_type\": \"classifier\"}"},"feature_names":[],"feature_types":[],"gradient_booster":{"model":{"gbtree_model_param":{"num_parallel_tree":"1","num_trees":"700","size_leaf_vector":"0"},"tree_info":[0,1,2,3,4,5,6,0,1,2,3,4,5,6,0,1,2,3,4,5,6,0,1,2,3,4,5,6,0,1,2,3,4,5,6,0,1,2,3,4,5,6,0,1,2,3,4,5,6,0,1,2,3,4,5,6,0,1,2,3,4,5,6,0,1,2,3,4,5,6,0,1,2,3,4,5,6,0,1,2,3,4,5,6,0,1,2,3,4,5,6,0,1,2,3,4,5,6,0,1,2,3,4,5,6,0,1,2,3,4,5,6,0,1,2,3,4,5,6,0,1,2,3,4,5,6,0,1,2,3,4,5,6,0,1,2,3,4,5,6,0,1,2,3,4,5,6,0,1,2,3,4,5,6,0,1,2,3,4,5,6,0,1,2,3,4,5,6,0,1,2,3,4,5,6,0,1,2,3,4,5,6,0,1,2,3,4,5,6,0,1,2,3,4,5,6,0,1,2,3,4,5,6,0,1,2,3,4,5,6,0,1,2,3,4,5,6,0,1,2,3,4,5,6,0,1,2,3,4,5,6,0,1,2,3,4,5,6,0,1,2,3,4,5,6,0,1,2,3,4,5,6,0,1,2,3,4,5,6,0,1,2,3,4,5,6,0,1,2,3,4,5,6,0,1,2,3,4,5,6,0,1,2,3,4,5,6,0,1,2,3,4,5,6,0,1,2,3,4,5,6,0,1,2,3,4,5,6,0,1,2,3,4,5,6,0,1,2,3,4,5,6,0,1,2,3,4,5,6,0,1,2,3,4,5,6,0,1,2,3,4,5,6,0,1,2,3,4,5,6,0,1,2,3,4,5,6,0,1,2,3,4,5,6,0,1,2,3,4,5,6,0,1,2,3,4,5,6,0,1,2,3,4,5,6,0,1,2,3,4,5,6,0,1,2,3,4,5,6,0,1,2,3,4,5,6,0,1,2,3,4,5,6,0,1,2,3,4,5,6,0,1,2,3,4,5,6,0,1,2,3,4,5,6,0,1,2,3,4,5,6,0,1,2,3,4,5,6,0,1,2,3,4,5,6,0,1,2,3,4,5,6,0,1,2,3,4,5,6,0,1,2,3,4,5,6,0,1,2,3,4,5,6,0,1,2,3,4,5,6,0,1,2,3,4,5,6,0,1,2,3,4,5,6,0,1,2,3,4,5,6,0,1,2,3,4,5,6,0,1,2,3,4,5,6,0,1,2,3,4,5,6,0,1,2,3,4,5,6,0,1,2,3,4,5,6,0,1,2,3,4,5,6,0,1,2,3,4,5,6,0,1,2,3,4,5,6,0,1,2,3,4,5,6,0,1,2,3,4,5,6,0,1,2,3,4,5,6,0,1,2,3,4,5,6,0,1,2,3,4,5,6,0,1,2,3,4,5,6,0,1,2,3,4,5,6,0,1,2,3,4,5,6,0,1,2,3,4,5,6,0,1,2,3,4,5,6,0,1,2,3,4,5,6,0,1,2,3,4,5,6,0,1,2,3,4,5,6,0,1,2,3,4,5,6,0,1,2,3,4,5,6,0,1,2,3,4,5,6,0,1,2,3,4,5,6,0,1,2,3,4,5,6,0,1,2,3,4,5,6],"trees":[{"base_weights":[-4.6220094E-1,-1.0566039E-1,-5.4885405E-1,1.6568045E-1,-3.862069E-1],"categories":[],"categories_nodes":[],"categories_segments":[],"categories_sizes":[],"default_left":[1,1,0,0,0],"id":0,"left_children":[1,3,-1,-1,-1],"loss_changes":[6.008978E-1,4.7567654E-1,0E0,0E0,0E0],"parents":[2147483647,0,0,1,1],"right_children":[2,4,-1,-1,-1],"split_conditions":[1.5E0,9E0,-1.6465622E-1,4.970414E-2,-1.1586207E-1],"split_indices":[1,2,0,0,0],"split_type":[0,0,0,0,0],"sum_hessian":[2.0326532E1,4.4081635E0,1.5918368E1,2.4489799E0,1.9591838E0],"tree_param":{"num_deleted":"0","num_feature":"5","num_nodes":"5","size_leaf_vector":"0"}},{"base_weights":[-2.277512E-1,2.584615E-1,-4.187256E-1,-4.647303E-1,1.4736842E0,-3.0567698E-2,-5.3480476E-1,-4.1420117E-1,5.7798165E-1],"categories":[],"categories_nodes":[],"categories_segments":[],"categories_sizes":[],"default_left":[1,1,1,0,0,1,0,0,0],"id":1,"left_children":[1,3,5,-1,-1,7,-1,-1,-1],"loss_changes":[2.0884821E0,6.5139003E0,6.9077206E-1,0E0,0E0,1.3304684E0,0E0,0E0,0E0],"parents":[2147483647,0,0,1,1,2,2,5,5],"right_children":[2,4,6,-1,-1,8,-1,-1,-1],"split_conditions":[2E0,5E-1,1.5E0,-1.394191E-1,4.4210526E-1,1.25E1,-1.6044143E-1,-1.2426036E-1,1.733945E-1],"split_indices":[0,3,1,0,0,2,0,0,0],"split_type":[0,0,0,0,0,0,0,0,0],"sum_hessian":[2.0326532E1,5.632653E0,1.4693878E1,3.9183676E0,1.7142859E0,3.6734695E0,1.1020409E1,2.4489799E0,1.2244899E0],"tree_param":{"num_deleted":"0","num_feature":"5","num_nodes":"9","size_leaf_vector":"0"}},{"base_weights":[4.7559804E-1,-4.658903E-2,1.0649086E0,8.2532746E-1,-5.154394E-1,2.4830186E0,-4.801444E-1,-3.862069E-1,1.8421052E0],"categories":[],"categories_nodes":[],"categories_segments":[],"categories_sizes":[],"default_left":[1,1,1,1,0,0,0,0,0],"id":2,"left_children":[1,3,5,7,-1,-1,-1,-1,-1],"loss_changes":[6.6124353E0,5.439444E0,2.3236908E1,6.468499E0,0E0,0E0,0E0,0E0,0E0],"parents":[2147483647,0,0,1,1,2,2,3,3],"right_children":[2,4,6,8,-1,-1,-1,-1,-1],"split_conditions":[5E-1,3.5E0,3.5E0,2E0,-1.5463182E-1,7.449056E-1,-1.4404333E-1,-1.1586207E-1,5.5263156E-1],"split_indices":[4,0,1,0,0,0,0,0,0],"split_type":[0,0,0,0,0,0,0,0,0],"sum_hessian":[2.0326532E1,1.1265306E1,9.061225E0,3.6734695E0,7.5918374E0,4.4081635E0,4.6530614E0,1.9591838E0,1.7142859E0],"tree_param":{"num_deleted":"0","num_feature":"5","num_nodes":"9","size_leaf_vector":"0"}},{"base_weights":[-4.6220094E-1,-1.4532873E-1,-5.4782605E-1,2.2292991E-1,-4.2541435E-1],"categories":[],"categories_nodes":[],"categories_segments":[],"categories_sizes":[],"default_left":[1,1,0,0,0],"id":3,"left_children":[1,3,-1,-1,-1],"loss_changes":[4.9902153E-1,7.031765E-1,0E0,0E0,0E0],"parents":[2147483647,0,0,1,1],"right_children":[2,4,-1,-1,-1],"split_conditions":[3.5E0,5E-1,-1.6434783E-1,6.6878974E-2,-1.2762432E-1],"split_indices":[2,3,0,0,0],"split_type":[0,0,0,0,0],"sum_hessian":[2.0326532E1,4.8979597E0,1.5428573E1,2.2040818E0,2.6938777E0],"tree_param":{"num_deleted":"0","num_feature":"5","num_nodes":"5","size_leaf_vector":"0"}},{"base_weights":[3.3492818E-1,5.9208727E-1,-2.3268698E-1,-1.4553029E-2,1.4651161E0,-4.754717E-1,2.8965515E-1,-4.585153E-1,3.2558137E-1,-4.0127388E-1,2.611399E0,1.3034482E0,-4.4390243E-1],"categories":[],"categories_nodes":[],"categories_segments":[],"categories_sizes":[],"default_left":[1,1,1,1,1,0,0,0,1,0,0,0,0],"id":4,"left_children":[1,3,5,7,9,-1,-1,-1,11,-1,-1,-1,-1],"loss_changes":[3.2507489E0,7.9439235E0,1.0720254E0,1.6316164E0,1.41899805E1,0E0,0E0,0E0,5.200814E0,0E0,0E0,0E0,0E0],"parents":[2147483647,0,0,1,1,2,2,3,3,4,4,8,8],"right_children":[2,4,6,8,10,-1,-1,-1,12,-1,-1,-1,-1],"split_conditions":[4.5E0,3.5E0,3.5E0,3.5E0,5E-1,-1.4264151E-1,8.6896546E-2,-1.3755459E-1,4.5E0,-1.2038217E-1,7.834197E-1,3.9103448E-1,-1.3317074E-1],"split_indices":[0,0,1,1,3,0,0,0,1,0,0,0,0],"split_type":[0,0,0,0,0,0,0,0,0,0,0,0,0],"sum_hessian":[2.0326532E1,1.3959185E1,6.3673472E0,8.816327E0,5.1428576E0,4.4081635E0,1.9591838E0,3.6734695E0,5.1428576E0,2.2040818E0,2.9387758E0,1.9591838E0,3.1836736E0],"tree_param":{"num_deleted":"0","num_feature":"5","num_nodes":"13","size_leaf_vector":"0"}},{"base_weights":[8.5071766E-1,2.5784445E-1,1.9390581E0,-5.267327E-1,1.6425992E0,-3.862069E-1,2.8528302E0,2.611399E0,-3.6842105E-1],"categories":[],"categories_nodes":[],"categories_segments":[],"categories_sizes":[],"default_left":[1,1,1,0,1,0,0,0,0],"id":5,"left_children":[1,3,5,-1,7,-1,-1,-1,-1],"loss_changes":[1.3260925E1,1.7117569E1,1.675564E1,0E0,1.1975817E1,0E0,0E0,0E0,0E0],"parents":[2147483647,0,0,1,1,2,2,4,4],"right_children":[2,4,6,-1,8,-1,-1,-1,-1],"split_conditions":[4.5E0,4.5E0,5E-1,-1.5801981E-1,5E-1,-1.1586207E-1,8.558491E-1,7.834197E-1,-1.10526316E-1],"split_indices":[0,1,3,0,3,0,0,0,0],"split_type":[0,0,0,0,0,0,0,0,0],"sum_hessian":[2.0326532E1,1.3959185E1,6.3673472E0,9.306123E0,4.6530614E0,1.9591838E0,4.4081635E0,2.9387758E0,1.7142859E0],"tree_param":{"num_deleted":"0","num_feature":"5","num_nodes":"9","size_leaf_vector":"0"}},{"base_weights":[-5.090909E-1],"categories":[],"categories_nodes":[],"categories_segments":[],"categories_sizes":[],"default_left":[0],"id":6,"left_children":[-1],"loss_changes":[0E0],"parents":[2147483647],"right_children":[-1],"split_conditions":[-1.5272728E-1],"split_indices":[0],"split_type":[0],"sum_hessian":[2.0326532E1],"tree_param":{"num_deleted":"0","num_feature":"5","num_nodes":"1","size_leaf_vector":"0"}},{"base_weights":[-4.310631E-1,-6.9415234E-2,-5.280284E-1,1.684066E-1,-3.5209033E-1],"categories":[],"categories_nodes":[],"categories_segments":[],"categories_sizes":[],"default_left":[1,1,0,0,0],"id":7,"left_children":[1,3,-1,-1,-1],"loss_changes":[6.1561394E-1,4.0107813E-1,0E0,0E0,0E0],"parents":[2147483647,0,0,1,1],"right_children":[2,4,-1,-1,-1],"split_conditions":[1.5E0,9E0,-1.5840854E-1,5.0521985E-2,-1.05627105E-1],"split_indices":[1,2,0,0,0],"split_type":[0,0,0,0,0],"sum_hessian":[1.7600426E1,4.084078E0,1.3516348E1,2.4375467E0,1.6465311E0],"tree_param":{"num_deleted":"0","num_feature":"5","num_nodes":"5","size_leaf_vector":"0"}},{"base_weights":[-1.918623E-1,2.1293914E-1,-3.8136882E-1,-4.4182014E-1,9.9692214E-1,1.470448E-2,-5.1182264E-1,1.6080107E-1,1.2936491E0,-3.8070783E-1,5.3240955E-1],"categories":[],"categories_nodes":[],"categories_segments":[],"categories_sizes":[],"default_left":[1,1,1,0,1,1,0,0,0,0,0],"id":8,"left_children":[1,3,5,-1,7,9,-1,-1,-1,-1,-1],"loss_changes":[1.5819502E0,3.9720023E0,7.14537E-1,0E0,6.4495325E-1,1.0956874E0,0E0,0E0,0E0,0E0,0E0],"parents":[2147483647,0,0,1,1,2,2,4,4,5,5],"right_children":[2,4,6,-1,8,10,-1,-1,-1,-1,-1],"split_conditions":[2E0,5E-1,1.5E0,-1.3254605E-1,1.5E0,1.25E1,-1.535468E-1,4.8240323E-2,3.8809475E-1,-1.1421236E-1,1.5972286E-1],"split_indices":[0,3,1,0,1,2,0,0,0,0,0],"split_type":[0,0,0,0,0,0,0,0,0,0,0],"sum_hessian":[1.8563196E1,5.879803E0,1.2683393E1,3.4417758E0,2.4380274E0,3.3623083E0,9.321085E0,1.0424669E0,1.3955605E0,2.0563416E0,1.3059667E0],"tree_param":{"num_deleted":"0","num_feature":"5","num_nodes":"11","size_leaf_vector":"0"}},{"base_weights":[3.5463512E-1,-4.734547E-1,5.559203E-1,1.0501721E0,-8.980549E-2,9.187739E-3,1.5041608E0,-4.701533E-1,3.6423844E-1,5.6806695E-1,-3.8664198E-1,8.3347917E-1,-3.4634772E-1],"categories":[],"categories_nodes":[],"categories_segments":[],"categories_sizes":[],"default_left":[1,0,1,1,1,1,0,0,1,0,0,0,0],"id":9,"left_children":[1,-1,3,5,7,9,-1,-1,11,-1,-1,-1,-1],"loss_changes":[4.118078E0,0E0,6.1788435E0,5.126955E0,1.7577902E0,1.1729835E0,0E0,0E0,1.8729105E0,0E0,0E0,0E0,0E0],"parents":[2147483647,0,0,2,2,3,3,4,4,5,5,8,8],"right_children":[2,-1,4,6,8,10,-1,-1,12,-1,-1,-1,-1],"split_conditions":[1.5E0,-1.4203642E-1,3.5E0,5E-1,5E-1,2.5E0,4.5124826E-1,-1.41046E-1,3.5E0,1.704201E-1,-1.159926E-1,2.5004375E-1,-1.0390432E-1],"split_indices":[1,0,1,4,3,1,0,0,0,0,0,0,0],"split_type":[0,0,0,0,0,0,0,0,0,0,0,0,0],"sum_hessian":[2.2127094E1,4.0623546E0,1.806474E1,9.877757E0,8.186981E0,3.3094692E0,6.5682883E0,4.435734E0,3.7512474E0,1.1917235E0,2.1177456E0,2.1551394E0,1.596108E0],"tree_param":{"num_deleted":"0","num_feature":"5","num_nodes":"13","size_leaf_vector":"0"}},{"base_weights":[-4.3134895E-1,-1.1689122E-1,-5.2607083E-1,2.032275E-1,-3.9712808E-1,-3.2769468E-1,6.9985914E-1],"categories":[],"categories_nodes":[],"categories_segments":[],"categories_sizes":[],"default_left":[1,1,0,1,0,0,0],"id":10,"left_children":[1,3,-1,5,-1,-1,-1],"loss_changes":[4.9269605E-1,5.824268E-1,0E0,1.0921023E0,0E0,0E0,0E0],"parents":[2147483647,0,0,1,1,3,3],"right_children":[2,4,-1,6,-1,-1,-1],"split_conditions":[3.5E0,5E-1,-1.5782125E-1,2E0,-1.1913843E-1,-9.830841E-2,2.0995775E-1],"split_indices":[2,3,0,0,0,0,0],"split_type":[0,0,0,0,0,0,0],"sum_hessian":[1.7605667E1,4.5927396E0,1.3012928E1,2.272094E0,2.3206458E0,1.2625428E0,1.009551E0],"tree_param":{"num_deleted":"0","num_feature":"5","num_nodes":"7","size_leaf_vector":"0"}},{"base_weights":[2.6745433E-1,4.366273E-1,-1.9061595E-1,-1.2900194E-2,9.314859E-1,3.3302775E-1,-4.5443255E-1,-4.599853E-1,3.3154637E-1,-3.7743896E-1,1.4228362E0,6.735628E-1,-3.5459024E-1,-3.5427976E-1,1.4337066E0],"categories":[],"categories_nodes":[],"categories_segments":[],"categories_sizes":[],"default_left":[1,1,1,1,1,0,0,0,1,0,0,1,0,0,0],"id":11,"left_children":[1,3,5,7,9,-1,-1,-1,11,-1,-1,13,-1,-1,-1],"loss_changes":[1.8130358E0,3.7059567E0,1.0792048E0,1.6443727E0,5.629345E0,0E0,0E0,0E0,1.6593089E0,0E0,0E0,3.933484E0,0E0,0E0,0E0],"parents":[2147483647,0,0,1,1,2,2,3,3,4,4,8,8,11,11],"right_children":[2,4,6,8,10,-1,-1,-1,12,-1,-1,14,-1,-1,-1],"split_conditions":[4.5E0,3.5E0,5E-1,5E-1,5E-1,9.990833E-2,-1.3632977E-1,-1.3799559E-1,4.5E0,-1.13231696E-1,4.268509E-1,3.5E0,-1.0637707E-1,-1.0628393E-1,4.30112E-1],"split_indices":[0,0,3,4,3,0,0,0,1,0,0,1,0,0,0],"split_type":[0,0,0,0,0,0,0,0,0,0,0,0,0,0,0],"sum_hessian":[2.1322086E1,1.560552E1,5.7165666E0,8.687637E0,6.917882E0,1.8272845E0,3.889282E0,3.634584E0,5.053054E0,1.9513763E0,4.966506E0,3.3843782E0,1.6686754E0,1.6658282E0,1.71855E0],"tree_param":{"num_deleted":"0","num_feature":"5","num_nodes":"15","size_leaf_vector":"0"}},{"base_weights":[5.776034E-1,1.9375134E-1,1.0933967E0,-5.0475407E-1,9.970508E-1,-3.6606818E-1,1.432914E0,1.4056269E0,-3.4968206E-1],"categories":[],"categories_nodes":[],"categories_segments":[],"categories_sizes":[],"default_left":[1,1,1,0,1,0,0,0,0],"id":12,"left_children":[1,3,5,-1,7,-1,-1,-1,-1],"loss_changes":[4.738141E0,9.228183E0,5.7036514E0,0E0,4.655924E0,0E0,0E0,0E0,0E0],"parents":[2147483647,0,0,1,1,2,2,4,4],"right_children":[2,4,6,-1,8,-1,-1,-1,-1],"split_conditions":[4.5E0,4.5E0,5E-1,-1.5142623E-1,5E-1,-1.0982046E-1,4.298742E-1,4.2168808E-1,-1.0490462E-1],"split_indices":[0,1,3,0,3,0,0,0,0],"split_type":[0,0,0,0,0,0,0,0,0],"sum_hessian":[2.4001415E1,1.4549416E1,9.452E0,7.9811187E0,6.5682964E0,1.7690932E0,7.682907E0,5.0058694E0,1.5624275E0],"tree_param":{"num_deleted":"0","num_feature":"5","num_nodes":"9","size_leaf_vector":"0"}},{"base_weights":[-4.8167267E-1],"categories":[],"categories_nodes":[],"categories_segments":[],"categories_sizes":[],"default_left":[0],"id":13,"left_children":[-1],"loss_changes":[0E0],"parents":[2147483647],"right_children":[-1],"split_conditions":[-1.445018E-1],"split_indices":[0],"split_type":[0],"sum_hessian":[1.7302444E1],"tree_param":{"num_deleted":"0","num_feature":"5","num_nodes":"1","size_leaf_vector":"0"}},{"base_weights":[-4.0195873E-1,-4.920564E-2,-5.0940233E-1,6.7183113E-1,-4.1990232E-1],"categories":[],"categories_nodes":[],"categories_segments":[],"categories_sizes":[],"default_left":[1,1,0,0,0],"id":14,"left_children":[1,3,-1,-1,-1],"loss_changes":[5.906935E-1,1.5918155E0,0E0,0E0,0E0],"parents":[2147483647,0,0,1,1],"right_children":[2,4,-1,-1,-1],"split_conditions":[1.5E0,3.5E0,-1.528207E-1,2.0154935E-1,-1.259707E-1],"split_indices":[1,0,0,0,0],"split_type":[0,0,0,0,0],"sum_hessian":[1.5246478E1,3.900041E0,1.13464365E1,1.0484225E0,2.8516188E0],"tree_param":{"num_deleted":"0","num_feature":"5","num_nodes":"5","size_leaf_vector":"0"}},{"base_weights":[-1.6011634E-1,1.9528812E-1,-3.482204E-1,-4.178641E-1,7.759797E-1,4.0056996E-2,-4.9175993E-1,1.16293855E-1,1.0063334E0,-3.4995744E-1,4.5828056E-1],"categories":[],"categories_nodes":[],"categories_segments":[],"categories_sizes":[],"default_left":[1,1,1,0,1,1,0,0,0,0,0],"id":15,"left_children":[1,3,5,-1,7,9,-1,-1,-1,-1,-1],"loss_changes":[1.2612941E0,2.7519083E0,6.90236E-1,0E0,4.6829915E-1,8.4087926E-1,0E0,0E0,0E0,0E0,0E0],"parents":[2147483647,0,0,1,1,2,2,4,4,5,5],"right_children":[2,4,6,-1,8,10,-1,-1,-1,-1,-1],"split_conditions":[2E0,5E-1,1.5E0,-1.2535924E-1,1.5E0,1.25E1,-1.4752798E-1,3.488816E-2,3.0190003E-1,-1.04987234E-1,1.3748418E-1],"split_indices":[0,3,1,0,1,2,0,0,0,0,0],"split_type":[0,0,0,0,0,0,0,0,0,0,0],"sum_hessian":[1.6849466E1,5.8182516E0,1.1031216E1,2.9664156E0,2.8518357E0,3.171952E0,7.8592634E0,1.1275662E0,1.7242695E0,1.7257926E0,1.4461594E0],"tree_param":{"num_deleted":"0","num_feature":"5","num_nodes":"11","size_leaf_vector":"0"}},{"base_weights":[2.8356E-1,-4.505409E-1,4.364741E-1,7.773069E-1,-8.019422E-2,1.0054688E-2,1.0561088E0,-4.4856784E-1,2.9925537E-1,4.644886E-1,-3.6493295E-1,6.279359E-1,-3.1910858E-1],"categories":[],"categories_nodes":[],"categories_segments":[],"categories_sizes":[],"default_left":[1,0,1,1,1,1,0,0,1,0,0,0,0],"id":16,"left_children":[1,-1,3,5,7,9,-1,-1,11,-1,-1,-1,-1],"loss_changes":[2.808101E0,0E0,3.5422268E0,2.556354E0,1.3588405E0,8.8657755E-1,0E0,0E0,1.1994157E0,0E0,0E0,0E0,0E0],"parents":[2147483647,0,0,2,2,3,3,4,4,5,5,8,8],"right_children":[2,-1,4,6,8,10,-1,-1,12,-1,-1,-1,-1],"split_conditions":[1.5E0,-1.3516228E-1,3.5E0,5E-1,5E-1,2.5E0,3.1683266E-1,-1.3457036E-1,3.5E0,1.3934658E-1,-1.0947989E-1,1.8838078E-1,-9.573258E-2],"split_indices":[1,0,1,4,3,1,0,0,0,0,0,0,0],"split_type":[0,0,0,0,0,0,0,0,0,0,0,0,0],"sum_hessian":[2.2263699E1,3.5025408E0,1.8761158E1,1.1000169E1,7.760989E0,3.2079837E0,7.7921853E0,3.8455424E0,3.9154465E0,1.3424455E0,1.8655381E0,2.5464478E0,1.3689989E0],"tree_param":{"num_deleted":"0","num_feature":"5","num_nodes":"13","size_leaf_vector":"0"}},{"base_weights":[-4.0268505E-1,-9.228803E-2,-5.0731075E-1,1.9088727E-1,-3.7219533E-1,-3.028052E-1,5.817528E-1],"categories":[],"categories_nodes":[],"categories_segments":[],"categories_sizes":[],"default_left":[1,1,0,1,0,0,0],"id":17,"left_children":[1,3,-1,5,-1,-1,-1],"loss_changes":[4.8014355E-1,4.9217054E-1,0E0,8.133507E-1,0E0,0E0,0E0],"parents":[2147483647,0,0,1,1,3,3],"right_children":[2,4,-1,6,-1,-1,-1],"split_conditions":[3.5E0,5E-1,-1.5219323E-1,2E0,-1.116586E-1,-9.084156E-2,1.7452584E-1],"split_indices":[2,3,0,0,0,0,0],"split_type":[0,0,0,0,0,0,0],"sum_hessian":[1.5226447E1,4.312996E0,1.0913451E1,2.3020763E0,2.0109196E0,1.1167867E0,1.1852896E0],"tree_param":{"num_deleted":"0","num_feature":"5","num_nodes":"7","size_leaf_vector":"0"}},{"base_weights":[2.2371432E-1,3.482877E-1,-1.5392315E-1,-1.9958638E-2,7.151358E-1,-4.280237E-1,3.0616695E-1,-4.434311E-1,2.8340545E-1,-3.5229775E-1,1.032757E0,-3.294263E-1,5.4558307E-1,1.0323039E0,-3.2621765E-1],"categories":[],"categories_nodes":[],"categories_segments":[],"categories_sizes":[],"default_left":[1,1,1,1,1,0,0,0,1,0,0,0,1,0,0],"id":18,"left_children":[1,3,5,7,9,-1,-1,-1,11,-1,-1,-1,13,-1,-1],"loss_changes":[1.0944109E0,2.3030825E0,9.10591E-1,1.3368679E0,3.2506437E0,0E0,0E0,0E0,1.1603253E0,0E0,0E0,0E0,2.3102627E0,0E0,0E0],"parents":[2147483647,0,0,1,1,2,2,3,3,4,4,8,8,12,12],"right_children":[2,4,6,8,10,-1,-1,-1,12,-1,-1,-1,14,-1,-1],"split_conditions":[4.5E0,3.5E0,3.5E0,5E-1,5E-1,-1.2840712E-1,9.185009E-2,-1.3302934E-1,3.5E0,-1.0568933E-1,3.0982712E-1,-9.882789E-2,4.5E0,3.096912E-1,-9.78653E-2],"split_indices":[0,0,1,4,3,0,0,0,1,0,0,0,1,0,0],"split_type":[0,0,0,0,0,0,0,0,0,0,0,0,0,0,0],"sum_hessian":[2.1124203E1,1.5942786E1,5.181416E0,8.428128E0,7.514658E0,3.2906775E0,1.8907385E0,3.3249903E0,5.103138E0,1.698228E0,5.81643E0,1.4521899E0,3.650948E0,2.2247684E0,1.4261795E0],"tree_param":{"num_deleted":"0","num_feature":"5","num_nodes":"15","size_leaf_vector":"0"}},{"base_weights":[4.5188445E-1,1.5465876E-1,8.04551E-1,-4.8561075E-1,7.447877E-1,-3.4548283E-1,1.0236429E0,1.0118449E0,-3.2870325E-1],"categories":[],"categories_nodes":[],"categories_segments":[],"categories_sizes":[],"default_left":[1,1,1,0,1,0,0,0,0],"id":19,"left_children":[1,3,5,-1,7,-1,-1,-1,-1],"loss_changes":[2.5524821E0,6.065636E0,3.2365236E0,0E0,2.6978388E0,0E0,0E0,0E0,0E0],"parents":[2147483647,0,0,1,1,2,2,4,4],"right_children":[2,4,6,-1,8,-1,-1,-1,-1],"split_conditions":[4.5E0,4.5E0,5E-1,-1.4568323E-1,5E-1,-1.03644855E-1,3.0709288E-1,3.0355346E-1,-9.861098E-2],"split_indices":[0,1,3,0,3,0,0,0,0],"split_type":[0,0,0,0,0,0,0,0,0],"sum_hessian":[2.4537811E1,1.4096168E1,1.0441643E1,6.8458104E0,7.2503576E0,1.5785902E0,8.863052E0,5.8519635E0,1.3983938E0],"tree_param":{"num_deleted":"0","num_feature":"5","num_nodes":"9","size_leaf_vector":"0"}},{"base_weights":[-4.56243E-1,-2.6071775E-1,-5.0581634E-1,4.1926242E-2,-4.0308377E-1],"categories":[],"categories_nodes":[],"categories_segments":[],"categories_sizes":[],"default_left":[1,1,0,0,0],"id":20,"left_children":[1,3,-1,-1,-1],"loss_changes":[2.0317078E-2,2.4265048E-1,0E0,0E0,0E0],"parents":[2147483647,0,0,1,1],"right_children":[2,4,-1,-1,-1],"split_conditions":[2E0,5E-1,-1.517449E-1,1.2577874E-2,-1.20925136E-1],"split_indices":[0,4,0,0,0],"split_type":[0,0,0,0,0],"sum_hessian":[1.4701592E1,4.239509E0,1.0462084E1,1.5819908E0,2.6575181E0],"tree_param":{"num_deleted":"0","num_feature":"5","num_nodes":"5","size_leaf_vector":"0"}},{"base_weights":[-3.7207338E-1,6.630837E-1,-5.066636E-1],"categories":[],"categories_nodes":[],"categories_segments":[],"categories_sizes":[],"default_left":[1,0,0],"id":21,"left_children":[1,-1,-1],"loss_changes":[2.2960353E0,0E0,0E0],"parents":[2147483647,0,0],"right_children":[2,-1,-1],"split_conditions":[5E-1,1.9892511E-1,-1.5199909E-1],"split_indices":[0,0,0],"split_type":[0,0,0],"sum_hessian":[1.3068663E1,1.0518692E0,1.2016794E1],"tree_param":{"num_deleted":"0","num_feature":"5","num_nodes":"3","size_leaf_vector":"0"}},{"base_weights":[-1.2951273E-1,1.9093117E-1,-3.165567E-1,-3.9369783E-1,6.514451E-1,5.6776743E-2,-4.7291675E-1,9.83749E-2,8.387615E-1,-3.2259282E-1,3.9942166E-1],"categories":[],"categories_nodes":[],"categories_segments":[],"categories_sizes":[],"default_left":[1,1,1,0,1,1,0,0,0,0,0],"id":22,"left_children":[1,3,5,-1,7,9,-1,-1,-1,-1,-1],"loss_changes":[1.0313984E0,2.0318913E0,6.459217E-1,0E0,3.386662E-1,6.5184206E-1,0E0,0E0,0E0,0E0,0E0],"parents":[2147483647,0,0,1,1,2,2,4,4,5,5],"right_children":[2,4,6,-1,8,10,-1,-1,-1,-1,-1],"split_conditions":[2E0,5E-1,1.5E0,-1.1810935E-1,1.5E0,1.25E1,-1.4187503E-1,2.9512472E-2,2.5162846E-1,-9.677785E-2,1.198265E-1],"split_indices":[0,3,1,0,1,2,0,0,0,0,0],"split_type":[0,0,0,0,0,0,0,0,0,0,0],"sum_hessian":[1.5199613E1,5.5944366E0,9.605176E0,2.528967E0,3.0654695E0,3.0233505E0,6.5818257E0,1.1614258E0,1.9040438E0,1.4625578E0,1.5607928E0],"tree_param":{"num_deleted":"0","num_feature":"5","num_nodes":"11","size_leaf_vector":"0"}},{"base_weights":[2.3442283E-1,-4.2810398E-1,3.60228E-1,6.25614E-1,-7.1605355E-2,9.548136E-3,8.3576804E-1,-4.27247E-1,2.5389406E-1,3.8695022E-1,-3.4360904E-1,4.9569732E-1,-2.8974938E-1],"categories":[],"categories_nodes":[],"categories_segments":[],"categories_sizes":[],"default_left":[1,0,1,1,1,1,0,0,1,0,0,0,0],"id":23,"left_children":[1,-1,3,5,7,9,-1,-1,11,-1,-1,-1,-1],"loss_changes":[2.0118604E0,0E0,2.253623E0,1.5508518E0,1.0616039E0,6.759593E-1,0E0,0E0,7.9120284E-1,0E0,0E0,0E0,0E0],"parents":[2147483647,0,0,2,2,3,3,4,4,5,5,8,8],"right_children":[2,-1,4,6,8,10,-1,-1,12,-1,-1,-1,-1],"split_conditions":[1.5E0,-1.284312E-1,3.5E0,5E-1,5E-1,2.5E0,2.5073043E-1,-1.281741E-1,3.5E0,1.16085075E-1,-1.0308272E-1,1.4870921E-1,-8.692482E-2],"split_indices":[1,0,1,4,3,1,0,0,0,0,0,0,0],"split_type":[0,0,0,0,0,0,0,0,0,0,0,0,0],"sum_hessian":[2.1287468E1,3.0136728E0,1.8273794E1,1.1040217E1,7.2335773E0,3.0740585E0,7.966159E0,3.3073585E0,3.926219E0,1.4397638E0,1.6342947E0,2.778558E0,1.1476609E0],"tree_param":{"num_deleted":"0","num_feature":"5","num_nodes":"13","size_leaf_vector":"0"}},{"base_weights":[-3.751245E-1,-7.026111E-2,-4.9000078E-1,-3.5065854E-1,1.7533398E-1,4.8797226E-1,-2.7345502E-1],"categories":[],"categories_nodes":[],"categories_segments":[],"categories_sizes":[],"default_left":[1,1,0,0,1,0,0],"id":24,"left_children":[1,3,-1,-1,5,-1,-1],"loss_changes":[4.5972598E-1,4.0780583E-1,0E0,0E0,6.031319E-1,0E0,0E0],"parents":[2147483647,0,0,1,1,4,4],"right_children":[2,4,-1,-1,6,-1,-1],"split_conditions":[3.5E0,2E0,-1.4700024E-1,-1.05197564E-1,5E-1,1.4639169E-1,-8.203651E-2],"split_indices":[2,0,0,0,3,0,0],"split_type":[0,0,0,0,0,0,0],"sum_hessian":[1.310998E1,4.029076E0,9.080904E0,1.6815026E0,2.3475733E0,1.3322111E0,1.0153623E0],"tree_param":{"num_deleted":"0","num_feature":"5","num_nodes":"7","size_leaf_vector":"0"}},{"base_weights":[1.9150497E-1,2.8272516E-1,-1.5100862E-1,4.1562825E-1,-8.772422E-2,-3.6936E-1,1.2073561E-1,1.3096544E-1,6.3989633E-1,-4.012601E-1,4.0549096E-1,-4.002512E-1,5.4878116E-1,7.859412E-1,1.576385E-1,6.612166E-1,1.0575752E-1],"categories":[],"categories_nodes":[],"categories_segments":[],"categories_sizes":[],"default_left":[1,1,1,1,1,0,0,1,1,0,0,0,1,0,0,0,0],"id":25,"left_children":[1,3,5,7,9,-1,-1,11,13,-1,-1,-1,15,-1,-1,-1,-1],"loss_changes":[7.01238E-1,8.7307453E-1,3.462991E-1,7.2571397E-1,9.842189E-1,0E0,0E0,1.7389213E0,3.5751557E-1,0E0,0E0,0E0,1.4193249E-1,0E0,0E0,0E0,0E0],"parents":[2147483647,0,0,1,1,2,2,3,3,4,4,7,7,8,8,12,12],"right_children":[2,4,6,8,10,-1,-1,12,14,-1,-1,-1,16,-1,-1,-1,-1],"split_conditions":[4.5E0,4.5E0,3.5E0,3.5E0,3.5E0,-1.1080801E-1,3.6220685E-2,3.5E0,2.5E0,-1.2037804E-1,1.2164729E-1,-1.2007537E-1,2E0,2.3578237E-1,4.7291555E-2,1.9836499E-1,3.1727258E-2],"split_indices":[1,0,0,0,1,0,0,1,1,0,0,0,0,0,0,0,0],"split_type":[0,0,0,0,0,0,0,0,0,0,0,0,0,0,0,0,0],"sum_hessian":[2.007735E1,1.5992653E1,4.0846972E0,1.16802635E1,4.3123903E0,2.0656726E0,2.0190244E0,5.8450837E0,5.8351793E0,2.750404E0,1.5619861E0,2.591832E0,3.253252E0,3.995491E0,1.8396884E0,2.2019167E0,1.0513353E0],"tree_param":{"num_deleted":"0","num_feature":"5","num_nodes":"17","size_leaf_vector":"0"}},{"base_weights":[3.7787938E-1,1.2864907E-1,6.52318E-1,-4.667814E-1,6.0660744E-1,-3.2915777E-1,8.271879E-1,8.131055E-1,-3.072891E-1],"categories":[],"categories_nodes":[],"categories_segments":[],"categories_sizes":[],"default_left":[1,1,1,0,1,0,0,0,0],"id":26,"left_children":[1,3,5,-1,7,-1,-1,-1,-1],"loss_changes":[1.583184E0,4.272842E0,2.2210374E0,0E0,1.7995167E0,0E0,0E0,0E0,0E0],"parents":[2147483647,0,0,1,1,2,2,4,4],"right_children":[2,4,6,-1,8,-1,-1,-1,-1],"split_conditions":[4.5E0,4.5E0,5E-1,-1.4003442E-1,5E-1,-9.8747335E-2,2.4815638E-1,2.4393167E-1,-9.2186734E-2],"split_indices":[0,1,3,0,3,0,0,0,0],"split_type":[0,0,0,0,0,0,0,0,0],"sum_hessian":[2.3373432E1,1.3019029E1,1.0354404E1,5.8075233E0,7.211505E0,1.4324311E0,8.921973E0,5.972325E0,1.2391801E0],"tree_param":{"num_deleted":"0","num_feature":"5","num_nodes":"9","size_leaf_vector":"0"}},{"base_weights":[-4.3247476E-1,-2.3060046E-1,-4.880983E-1,4.253926E-2,-3.765342E-1],"categories":[],"categories_nodes":[],"categories_segments":[],"categories_sizes":[],"default_left":[1,1,0,0,0],"id":27,"left_children":[1,3,-1,-1,-1],"loss_changes":[3.9224386E-2,2.0796046E-1,0E0,0E0,0E0],"parents":[2147483647,0,0,1,1],"right_children":[2,4,-1,-1,-1],"split_conditions":[2E0,5E-1,-1.464295E-1,1.2761779E-2,-1.12960264E-1],"split_indices":[0,4,0,0,0],"split_type":[0,0,0,0,0],"sum_hessian":[1.2516848E1,3.8153932E0,8.701454E0,1.5753541E0,2.240039E0],"tree_param":{"num_deleted":"0","num_feature":"5","num_nodes":"5","size_leaf_vector":"0"}},{"base_weights":[-3.4165516E-1,5.4912084E-1,-4.911378E-1],"categories":[],"categories_nodes":[],"categories_segments":[],"categories_sizes":[],"default_left":[1,0,0],"id":28,"left_children":[1,-1,-1],"loss_changes":[1.8910059E0,0E0,0E0],"parents":[2147483647,0,0],"right_children":[2,-1,-1],"split_conditions":[5E-1,1.6473626E-1,-1.4734134E-1],"split_indices":[0,0,0],"split_type":[0,0,0],"sum_hessian":[1.1176074E1,1.2218026E0,9.954271E0],"tree_param":{"num_deleted":"0","num_feature":"5","num_nodes":"3","size_leaf_vector":"0"}},{"base_weights":[-1.0336579E-1,1.8872336E-1,-2.8827855E-1,-3.6968732E-1,5.644326E-1,6.5089606E-2,-4.552797E-1,7.86487E-2,7.332771E-1,-2.9619598E-1,3.4402746E-1],"categories":[],"categories_nodes":[],"categories_segments":[],"categories_sizes":[],"default_left":[1,1,1,0,1,1,0,0,0,0,0],"id":29,"left_children":[1,3,5,-1,7,9,-1,-1,-1,-1,-1],"loss_changes":[8.5163873E-1,1.5359397E0,5.86373E-1,0E0,2.8498614E-1,4.9519032E-1,0E0,0E0,0E0,0E0,0E0],"parents":[2147483647,0,0,1,1,2,2,4,4,5,5],"right_children":[2,4,6,-1,8,10,-1,-1,-1,-1,-1],"split_conditions":[2E0,5E-1,1.5E0,-1.109062E-1,1.5E0,1.25E1,-1.3658392E-1,2.3594612E-2,2.1998313E-1,-8.88588E-2,1.03208244E-1],"split_indices":[0,3,1,0,1,2,0,0,0,0,0],"split_type":[0,0,0,0,0,0,0,0,0,0,0],"sum_hessian":[1.3760578E1,5.3263855E0,8.434193E0,2.1487544E0,3.1776311E0,2.9026146E0,5.531578E0,1.1976546E0,1.9799765E0,1.2376789E0,1.6649358E0],"tree_param":{"num_deleted":"0","num_feature":"5","num_nodes":"11","size_leaf_vector":"0"}},{"base_weights":[1.961022E-1,-4.083864E-1,3.0565113E-1,5.2888393E-1,-6.567241E-2,5.440374E-3,7.0866513E-1,-4.0623784E-1,2.1681897E-1,3.264968E-1,-3.2397783E-1,6.510627E-2,3.441135E-1],"categories":[],"categories_nodes":[],"categories_segments":[],"categories_sizes":[],"default_left":[1,0,1,1,1,1,0,0,1,0,0,0,0],"id":30,"left_children":[1,-1,3,5,7,9,-1,-1,11,-1,-1,-1,-1],"loss_changes":[1.5005288E0,0E0,1.5399712E0,1.0737939E0,8.296023E-1,5.2198756E-1,0E0,0E0,7.155001E-2,0E0,0E0,0E0,0E0],"parents":[2147483647,0,0,2,2,3,3,4,4,5,5,8,8],"right_children":[2,-1,4,6,8,10,-1,-1,12,-1,-1,-1,-1],"split_conditions":[1.5E0,-1.22515924E-1,3.5E0,5E-1,5E-1,2.5E0,2.1259955E-1,-1.2187136E-1,1.1E1,9.794905E-2,-9.719335E-2,1.9531883E-2,1.0323405E-1],"split_indices":[1,0,1,4,3,1,0,0,2,0,0,0,0],"split_type":[0,0,0,0,0,0,0,0,0,0,0,0,0],"sum_hessian":[1.9774427E1,2.6153104E0,1.7159117E1,1.0451531E1,6.707587E0,2.9353495E0,7.5161815E0,2.8425803E0,3.8650064E0,1.4910327E0,1.4443167E0,2.452965E0,1.4120414E0],"tree_param":{"num_deleted":"0","num_feature":"5","num_nodes":"13","size_leaf_vector":"0"}},{"base_weights":[-3.4926066E-1,-5.4270677E-2,-4.7369668E-1,1.7217153E-1,-3.2673436E-1],"categories":[],"categories_nodes":[],"categories_segments":[],"categories_sizes":[],"default_left":[1,1,0,0,0],"id":31,"left_children":[1,3,-1,-1,-1],"loss_changes":[4.2720902E-1,3.5178563E-1,0E0,0E0,0E0],"parents":[2147483647,0,0,1,1],"right_children":[2,4,-1,-1,-1],"split_conditions":[3.5E0,5E-1,-1.42109E-1,5.1651463E-2,-9.8020315E-2],"split_indices":[2,3,0,0,0],"split_type":[0,0,0,0,0],"sum_hessian":[1.1338574E1,3.7900217E0,7.5485525E0,2.27084E0,1.5191817E0],"tree_param":{"num_deleted":"0","num_feature":"5","num_nodes":"5","size_leaf_vector":"0"}},{"base_weights":[1.7112994E-1,2.1921024E-1,-3.0640224E-1,-1.3200148E-3,3.50309E-1,-4.02896E-1,2.596954E-1,5.451079E-1,-4.579745E-2,4.402549E-1,-2.686407E-1,-2.9185432E-1,7.2626776E-1,4.7343817E-1,-3.8775346E-1],"categories":[],"categories_nodes":[],"categories_segments":[],"categories_sizes":[],"default_left":[1,1,0,1,1,0,1,1,1,0,0,0,0,0,0],"id":32,"left_children":[1,3,-1,5,7,-1,9,11,13,-1,-1,-1,-1,-1,-1],"loss_changes":[5.2419674E-1,5.401682E-1,0E0,9.3857586E-1,9.2863774E-1,0E0,6.362755E-1,1.4140663E0,1.0328857E0,0E0,0E0,0E0,0E0,0E0,0E0],"parents":[2147483647,0,0,1,1,3,3,4,4,6,6,7,7,8,8],"right_children":[2,4,-1,6,8,-1,10,12,14,-1,-1,-1,-1,-1,-1],"split_conditions":[1.45E1,3.5E0,-9.1920674E-2,5E-1,4.5E0,-1.208688E-1,4.5E0,5E-1,5E-1,1.3207647E-1,-8.0592215E-2,-8.75563E-2,2.1788034E-1,1.4203146E-1,-1.1632604E-1],"split_indices":[2,0,0,4,0,0,1,3,3,0,0,0,0,0,0],"split_type":[0,0,0,0,0,0,0,0,0,0,0,0,0,0,0],"sum_hessian":[1.8905596E1,1.7667679E1,1.2379173E0,6.9561653E0,1.07115135E1,2.5261207E0,4.4300447E0,6.9281793E0,3.783334E0,3.42594E0,1.0041046E0,1.1240437E0,5.804136E0,1.3495854E0,2.4337487E0],"tree_param":{"num_deleted":"0","num_feature":"5","num_nodes":"15","size_leaf_vector":"0"}},{"base_weights":[3.2577485E-1,1.0616264E-1,5.576043E-1,-4.491692E-1,5.157936E-1,-3.1253415E-1,7.1083057E-1,6.955905E-1,-2.9108453E-1],"categories":[],"categories_nodes":[],"categories_segments":[],"categories_sizes":[],"default_left":[1,1,1,0,1,0,0,0,0],"id":33,"left_children":[1,3,5,-1,7,-1,-1,-1,-1],"loss_changes":[1.0823474E0,3.1319222E0,1.645071E0,0E0,1.3344443E0,0E0,0E0,0E0,0E0],"parents":[2147483647,0,0,1,1,2,2,4,4],"right_children":[2,4,6,-1,8,-1,-1,-1,-1],"split_conditions":[4.5E0,4.5E0,5E-1,-1.3475077E-1,5E-1,-9.376025E-2,2.1324918E-1,2.0867716E-1,-8.7325364E-2],"split_indices":[0,1,3,0,3,0,0,0,0],"split_type":[0,0,0,0,0,0,0,0,0],"sum_hessian":[2.1421646E1,1.1749381E1,9.672264E0,4.9466906E0,6.8026905E0,1.2925375E0,8.379726E0,5.675861E0,1.1268296E0],"tree_param":{"num_deleted":"0","num_feature":"5","num_nodes":"9","size_leaf_vector":"0"}},{"base_weights":[-4.093617E-1,-2.0117992E-1,-4.717709E-1,-3.541297E-1,4.4802666E-2],"categories":[],"categories_nodes":[],"categories_segments":[],"categories_sizes":[],"default_left":[1,1,0,0,0],"id":34,"left_children":[1,3,-1,-1,-1],"loss_changes":[5.710399E-2,1.829884E-1,0E0,0E0,0E0],"parents":[2147483647,0,0,1,1],"right_children":[2,4,-1,-1,-1],"split_conditions":[2E0,6.5E0,-1.4153127E-1,-1.0623892E-1,1.34408E-2],"split_indices":[0,2,0,0,0],"split_type":[0,0,0,0,0],"sum_hessian":[1.07002325E1,3.44203E0,7.258202E0,1.851272E0,1.590758E0],"tree_param":{"num_deleted":"0","num_feature":"5","num_nodes":"5","size_leaf_vector":"0"}},{"base_weights":[-3.1191912E-1,4.5687515E-1,-4.759243E-1],"categories":[],"categories_nodes":[],"categories_segments":[],"categories_sizes":[],"default_left":[1,0,0],"id":35,"left_children":[1,-1,-1],"loss_changes":[1.5488819E0,0E0,0E0],"parents":[2147483647,0,0],"right_children":[2,-1,-1],"split_conditions":[5E-1,1.3706255E-1,-1.427773E-1],"split_indices":[0,0,0],"split_type":[0,0,0],"sum_hessian":[9.559786E0,1.3668368E0,8.192949E0],"tree_param":{"num_deleted":"0","num_feature":"5","num_nodes":"3","size_leaf_vector":"0"}},{"base_weights":[-8.113018E-2,1.2085546E-1,-3.1669068E-1,-3.45925E-1,2.4969424E-1,-4.2475876E-1,-4.374587E-2,-1.2374476E-1,4.9952E-1,-3.1636772E-1,1.7170209E-1,6.7566353E-1,1.7368868E-1],"categories":[],"categories_nodes":[],"categories_segments":[],"categories_sizes":[],"default_left":[1,1,1,0,1,0,0,1,1,0,0,0,0],"id":36,"left_children":[1,3,5,-1,7,-1,-1,9,11,-1,-1,-1,-1],"loss_changes":[6.7694443E-1,5.645059E-1,1.7234343E-1,0E0,6.9728017E-1,0E0,0E0,2.5530934E-1,1.2827003E-1,0E0,0E0,0E0,0E0],"parents":[2147483647,0,0,1,1,2,2,4,4,7,7,8,8],"right_children":[2,4,6,-1,8,-1,-1,10,12,-1,-1,-1,-1],"split_conditions":[3.5E0,5E-1,5E-1,-1.03777505E-1,5E-1,-1.2742764E-1,-1.3123762E-2,9.5E0,4E0,-9.4910316E-2,5.151063E-2,2.0269907E-1,5.2106608E-2],"split_indices":[0,0,4,0,3,0,0,2,2,0,0,0,0],"split_type":[0,0,0,0,0,0,0,0,0,0,0,0,0],"sum_hessian":[1.2423136E1,6.9503646E0,5.472771E0,1.1389663E0,5.811398E0,3.5220606E0,1.9507107E0,2.5316978E0,3.2797005E0,1.4896666E0,1.0420312E0,1.4319382E0,1.8477623E0],"tree_param":{"num_deleted":"0","num_feature":"5","num_nodes":"13","size_leaf_vector":"0"}},{"base_weights":[1.7262712E-1,-3.8674292E-1,2.7057216E-1,4.6857083E-1,-5.6831166E-2,3.4413205E-3,6.320038E-1,-3.8620195E-1,1.9228998E-1,2.7855924E-1,-3.029022E-1,6.0977068E-2,2.9571947E-1],"categories":[],"categories_nodes":[],"categories_segments":[],"categories_sizes":[],"default_left":[1,0,1,1,1,1,0,0,1,0,0,0,0],"id":37,"left_children":[1,-1,3,5,7,9,-1,-1,11,-1,-1,-1,-1],"loss_changes":[1.150011E0,0E0,1.1173604E0,8.03082E-1,6.677221E-1,4.0125275E-1,0E0,0E0,4.696375E-2,0E0,0E0,0E0,0E0],"parents":[2147483647,0,0,2,2,3,3,4,4,5,5,8,8],"right_children":[2,-1,4,6,8,10,-1,-1,12,-1,-1,-1,-1],"split_conditions":[1.5E0,-1.1602288E-1,3.5E0,5E-1,5E-1,2.5E0,1.8960114E-1,-1.1586059E-1,1.1E1,8.3567776E-2,-9.087066E-2,1.8293122E-2,8.8715844E-2],"split_indices":[1,0,1,4,3,1,0,0,2,0,0,0,0],"split_type":[0,0,0,0,0,0,0,0,0,0,0,0,0],"sum_hessian":[1.808043E1,2.2547636E0,1.58256645E1,9.59305E0,6.232615E0,2.759781E0,6.833269E0,2.4470441E0,3.7855706E0,1.5017768E0,1.2580042E0,2.368325E0,1.4172456E0],"tree_param":{"num_deleted":"0","num_feature":"5","num_nodes":"13","size_leaf_vector":"0"}},{"base_weights":[-3.2292986E-1,-4.0799063E-2,-4.5716634E-1,1.8334855E-1,-3.2909387E-1],"categories":[],"categories_nodes":[],"categories_segments":[],"categories_sizes":[],"default_left":[1,1,0,0,0],"id":38,"left_children":[1,3,-1,-1,-1],"loss_changes":[3.91289E-1,3.568011E-1,0E0,0E0,0E0],"parents":[2147483647,0,0,1,1],"right_children":[2,4,-1,-1,-1],"split_conditions":[3.5E0,5E-1,-1.3714992E-1,5.5004567E-2,-9.8728165E-2],"split_indices":[2,4,0,0,0],"split_type":[0,0,0,0,0],"sum_hessian":[9.824306E0,3.5877357E0,6.2365694E0,2.2232194E0,1.3645165E0],"tree_param":{"num_deleted":"0","num_feature":"5","num_nodes":"5","size_leaf_vector":"0"}},{"base_weights":[1.4985386E-1,-3.560393E-2,2.647153E-1,-4.0222764E-1,2.133244E-1,4.464751E-1,-6.9848396E-2,-2.7998757E-1,4.011735E-1,-2.9960036E-1,6.377815E-1,2.712774E-1,-3.6193722E-1],"categories":[],"categories_nodes":[],"categories_segments":[],"categories_sizes":[],"default_left":[1,1,1,0,1,1,1,0,0,0,0,0,0],"id":39,"left_children":[1,3,5,-1,7,9,11,-1,-1,-1,-1,-1,-1],"loss_changes":[4.0160543E-1,8.088662E-1,7.2975636E-1,0E0,6.101641E-1,1.2728246E0,5.872841E-1,0E0,0E0,0E0,0E0,0E0,0E0],"parents":[2147483647,0,0,1,1,2,2,4,4,5,5,6,6],"right_children":[2,4,6,-1,8,10,12,-1,-1,-1,-1,-1,-1],"split_conditions":[3.5E0,5E-1,4.5E0,-1.206683E-1,3.5E0,5E-1,5E-1,-8.399627E-2,1.2035205E-1,-8.988011E-2,1.9133446E-1,8.138322E-2,-1.0858117E-1],"split_indices":[0,4,0,0,1,3,3,0,0,0,0,0,0],"split_type":[0,0,0,0,0,0,0,0,0,0,0,0,0],"sum_hessian":[1.7410545E1,6.9228277E0,1.0487719E1,2.5505376E0,4.37229E0,6.5790124E0,3.908706E0,1.0705137E0,3.3017762E0,1.2271552E0,5.351857E0,1.8358716E0,2.0728345E0],"tree_param":{"num_deleted":"0","num_feature":"5","num_nodes":"13","size_leaf_vector":"0"}},{"base_weights":[2.8611404E-1,8.755639E-2,4.9001324E-1,-4.3133518E-1,4.5062494E-1,-2.940891E-1,6.3049495E-1,6.1467636E-1,-2.7444622E-1],"categories":[],"categories_nodes":[],"categories_segments":[],"categories_sizes":[],"default_left":[1,1,1,0,1,0,0,0,0],"id":40,"left_children":[1,3,5,-1,7,-1,-1,-1,-1],"loss_changes":[7.681124E-1,2.3357534E0,1.2501049E0,0E0,1.0223275E0,0E0,0E0,0E0,0E0],"parents":[2147483647,0,0,1,1,2,2,4,4],"right_children":[2,4,6,-1,8,-1,-1,-1,-1],"split_conditions":[4.5E0,4.5E0,5E-1,-1.2940057E-1,5E-1,-8.8226736E-2,1.891485E-1,1.8440291E-1,-8.233387E-2],"split_indices":[0,1,3,0,3,0,0,0,0],"split_type":[0,0,0,0,0,0,0,0,0],"sum_hessian":[1.903214E1,1.0366562E1,8.665579E0,4.1901054E0,6.176456E0,1.1505154E0,7.5150633E0,5.1610036E0,1.0154523E0],"tree_param":{"num_deleted":"0","num_feature":"5","num_nodes":"9","size_leaf_vector":"0"}},{"base_weights":[-3.851764E-1,-1.7280297E-1,-4.551995E-1,6.714519E-2,-3.3151406E-1],"categories":[],"categories_nodes":[],"categories_segments":[],"categories_sizes":[],"default_left":[1,1,0,0,0],"id":41,"left_children":[1,3,-1,-1,-1],"loss_changes":[7.2139144E-2,1.7940065E-1,0E0,0E0,0E0],"parents":[2147483647,0,0,1,1],"right_children":[2,4,-1,-1,-1],"split_conditions":[2E0,5E-1,-1.3655986E-1,2.0143557E-2,-9.9454224E-2],"split_indices":[0,4,0,0,0],"split_type":[0,0,0,0,0],"sum_hessian":[9.140433E0,3.126341E0,6.0140924E0,1.474319E0,1.6520222E0],"tree_param":{"num_deleted":"0","num_feature":"5","num_nodes":"5","size_leaf_vector":"0"}},{"base_weights":[-2.841931E-1,3.761895E-1,-4.6021256E-1],"categories":[],"categories_nodes":[],"categories_segments":[],"categories_sizes":[],"default_left":[1,0,0],"id":42,"left_children":[1,-1,-1],"loss_changes":[1.2456131E0,0E0,0E0],"parents":[2147483647,0,0],"right_children":[2,-1,-1],"split_conditions":[5E-1,1.1285686E-1,-1.3806377E-1],"split_indices":[0,0,0],"split_type":[0,0,0],"sum_hessian":[8.226465E0,1.4919236E0,6.734542E0],"tree_param":{"num_deleted":"0","num_feature":"5","num_nodes":"3","size_leaf_vector":"0"}},{"base_weights":[-5.943918E-2,1.7813918E-1,-2.3204212E-1,-3.2809436E-1,4.5043024E-1,1.3046847E-1,-4.286233E-1,5.3243604E-2,5.958606E-1],"categories":[],"categories_nodes":[],"categories_segments":[],"categories_sizes":[],"default_left":[1,1,1,0,1,0,0,0,0],"id":43,"left_children":[1,3,5,-1,7,-1,-1,-1,-1],"loss_changes":[5.5123967E-1,9.470189E-1,6.001185E-1,0E0,2.103976E-1,0E0,0E0,0E0,0E0],"parents":[2147483647,0,0,1,1,2,2,4,4],"right_children":[2,4,6,-1,8,-1,-1,-1,-1],"split_conditions":[2E0,5E-1,1.5E0,-9.842832E-2,1.5E0,3.9140545E-2,-1.28587E-1,1.5973082E-2,1.7875819E-1],"split_indices":[0,3,1,0,1,0,0,0,0],"split_type":[0,0,0,0,0,0,0,0,0],"sum_hessian":[1.1434642E1,4.7981625E0,6.6364794E0,1.6064919E0,3.1916707E0,2.45169E0,4.184789E0,1.221561E0,1.9701096E0],"tree_param":{"num_deleted":"0","num_feature":"5","num_nodes":"9","size_leaf_vector":"0"}},{"base_weights":[1.5261406E-1,-3.6781263E-1,2.4275672E-1,4.2334473E-1,-4.8260637E-2,6.3106874E-3,5.748634E-1,-3.660319E-1,1.7199236E-1,2.479043E-1,-2.8243035E-1,5.997454E-2,2.5310346E-1],"categories":[],"categories_nodes":[],"categories_segments":[],"categories_sizes":[],"default_left":[1,0,1,1,1,1,0,0,1,0,0,0,0],"id":44,"left_children":[1,-1,3,5,7,9,-1,-1,11,-1,-1,-1,-1],"loss_changes":[9.05167E-1,0E0,8.3114433E-1,6.0434055E-1,5.3921646E-1,3.1941605E-1,0E0,0E0,2.7518138E-2,0E0,0E0,0E0,0E0],"parents":[2147483647,0,0,2,2,3,3,4,4,5,5,8,8],"right_children":[2,-1,4,6,8,10,-1,-1,12,-1,-1,-1,-1],"split_conditions":[1.5E0,-1.1034379E-1,3.5E0,5E-1,5E-1,2.5E0,1.7245902E-1,-1.0980957E-1,1.1E1,7.437129E-2,-8.4729105E-2,1.7992362E-2,7.593104E-2],"split_indices":[1,0,1,4,3,1,0,0,2,0,0,0,0],"split_type":[0,0,0,0,0,0,0,0,0,0,0,0,0],"sum_hessian":[1.639143E1,1.9652104E0,1.442622E1,8.621515E0,5.8047047E0,2.5752227E0,6.046293E0,2.1053412E0,3.6993632E0,1.4790834E0,1.0961393E0,2.2842E0,1.4151633E0],"tree_param":{"num_deleted":"0","num_feature":"5","num_nodes":"13","size_leaf_vector":"0"}},{"base_weights":[-2.968959E-1,-2.7954511E-2,-4.4059712E-1,-3.039776E-1,1.8070535E-1],"categories":[],"categories_nodes":[],"categories_segments":[],"categories_sizes":[],"default_left":[1,1,0,0,0],"id":45,"left_children":[1,3,-1,-1,-1],"loss_changes":[3.5735035E-1,3.0827785E-1,0E0,0E0,0E0],"parents":[2147483647,0,0,1,1],"right_children":[2,4,-1,-1,-1],"split_conditions":[3.5E0,2E0,-1.3217914E-1,-9.119329E-2,5.421161E-2],"split_indices":[2,0,0,0,0],"split_type":[0,0,0,0,0],"sum_hessian":[8.56517E0,3.3987796E0,5.166391E0,1.2665416E0,2.132238E0],"tree_param":{"num_deleted":"0","num_feature":"5","num_nodes":"5","size_leaf_vector":"0"}},{"base_weights":[1.3199218E-1,1.9945191E-1,-1.3764791E-1,3.832019E-2,4.3290508E-1,-3.163825E-1,9.368003E-2,-3.9817822E-1,2.7482936E-1,-3.112562E-1,7.175225E-1],"categories":[],"categories_nodes":[],"categories_segments":[],"categories_sizes":[],"default_left":[1,1,1,1,1,0,0,0,0,0,0],"id":46,"left_children":[1,3,5,7,9,-1,-1,-1,-1,-1,-1],"loss_changes":[3.3360568E-1,5.0519484E-1,1.933633E-1,1.0699196E0,1.4024812E0,0E0,0E0,0E0,0E0,0E0,0E0],"parents":[2147483647,0,0,1,1,2,2,3,3,4,4],"right_children":[2,4,6,8,10,-1,-1,-1,-1,-1,-1],"split_conditions":[4.5E0,3.5E0,3.5E0,5E-1,5E-1,-9.491476E-2,2.8104011E-2,-1.1945347E-1,8.244881E-2,-9.337686E-2,2.1525677E-1],"split_indices":[1,1,0,3,4,0,0,0,0,0,0],"split_type":[0,0,0,0,0,0,0,0,0,0,0],"sum_hessian":[1.58309E1,1.2871064E1,2.959836E0,8.303825E0,4.5672383E0,1.4623092E0,1.4975268E0,2.677922E0,5.6259036E0,1.2376585E0,3.3295798E0],"tree_param":{"num_deleted":"0","num_feature":"5","num_nodes":"11","size_leaf_vector":"0"}},{"base_weights":[2.556408E-1,7.531839E-2,4.3806133E-1,-4.1322228E-1,4.0352044E-1,-2.7706885E-1,5.722358E-1],"categories":[],"categories_nodes":[],"categories_segments":[],"categories_sizes":[],"default_left":[1,1,1,0,0,0,0],"id":47,"left_children":[1,3,5,-1,-1,-1,-1],"loss_changes":[5.483155E-1,1.7853297E0,9.8155236E-1,0E0,0E0,0E0,0E0],"parents":[2147483647,0,0,1,1,2,2],"right_children":[2,4,6,-1,-1,-1,-1],"split_conditions":[4.5E0,4.5E0,5E-1,-1.2396669E-1,1.2105613E-1,-8.312066E-2,1.7167075E-1],"split_indices":[0,1,3,0,0,0,0],"split_type":[0,0,0,0,0,0,0],"sum_hessian":[1.6671934E1,9.094709E0,7.5772243E0,3.5505455E0,5.544164E0,1.028813E0,6.5484114E0],"tree_param":{"num_deleted":"0","num_feature":"5","num_nodes":"7","size_leaf_vector":"0"}},{"base_weights":[-3.6082894E-1,-1.4766257E-1,-4.3831387E-1,-3.1593004E-1,7.971161E-2],"categories":[],"categories_nodes":[],"categories_segments":[],"categories_sizes":[],"default_left":[1,1,0,0,0],"id":48,"left_children":[1,3,-1,-1,-1],"loss_changes":[8.14085E-2,1.7311913E-1,0E0,0E0,0E0],"parents":[2147483647,0,0,1,1],"right_children":[2,4,-1,-1,-1],"split_conditions":[2E0,6.5E0,-1.3149416E-1,-9.4779015E-2,2.3913484E-2],"split_indices":[0,2,0,0,0],"split_type":[0,0,0,0,0],"sum_hessian":[7.8472095E0,2.866624E0,4.9805856E0,1.4236126E0,1.4430115E0],"tree_param":{"num_deleted":"0","num_feature":"5","num_nodes":"5","size_leaf_vector":"0"}},{"base_weights":[-2.5721473E-1,3.2698897E-1,-4.4507238E-1],"categories":[],"categories_nodes":[],"categories_segments":[],"categories_sizes":[],"default_left":[1,0,0],"id":49,"left_children":[1,-1,-1],"loss_changes":[1.0404932E0,0E0,0E0],"parents":[2147483647,0,0],"right_children":[2,-1,-1],"split_conditions":[5E-1,9.809669E-2,-1.3352172E-1],"split_indices":[0,0,0],"split_type":[0,0,0],"sum_hessian":[7.15474E0,1.560681E0,5.594059E0],"tree_param":{"num_deleted":"0","num_feature":"5","num_nodes":"3","size_leaf_vector":"0"}},{"base_weights":[-4.204587E-2,1.7630886E-1,-2.0816907E-1,-3.0337307E-1,4.0653214E-1,-4.1786858E-1,1.2875977E-1,4.4253923E-2,5.441846E-1],"categories":[],"categories_nodes":[],"categories_segments":[],"categories_sizes":[],"default_left":[1,1,1,0,1,0,0,0,0],"id":50,"left_children":[1,3,5,-1,7,-1,-1,-1,-1],"loss_changes":[4.5204207E-1,7.2947526E-1,5.4565346E-1,0E0,1.821779E-1,0E0,0E0,0E0,0E0],"parents":[2147483647,0,0,1,1,2,2,4,4],"right_children":[2,4,6,-1,8,-1,-1,-1,-1],"split_conditions":[2E0,5E-1,5E-1,-9.101193E-2,1.5E0,-1.2536058E-1,3.8627934E-2,1.3276177E-2,1.632554E-1],"split_indices":[0,3,4,0,1,0,0,0,0],"split_type":[0,0,0,0,0,0,0,0,0],"sum_hessian":[1.0450142E1,4.4887505E0,5.9613914E0,1.3526666E0,3.1360838E0,3.5263906E0,2.4350011E0,1.2273624E0,1.9087213E0],"tree_param":{"num_deleted":"0","num_feature":"5","num_nodes":"9","size_leaf_vector":"0"}},{"base_weights":[1.314266E-1,-3.5154414E-1,2.1698646E-1,3.7913358E-1,-3.546395E-2,4.3669054E-3,5.2573043E-1,-3.4427902E-1,1.6119501E-1,6.2443383E-2,2.264803E-1],"categories":[],"categories_nodes":[],"categories_segments":[],"categories_sizes":[],"default_left":[1,0,1,1,1,0,0,0,1,0,0],"id":51,"left_children":[1,-1,3,5,7,-1,-1,-1,9,-1,-1],"loss_changes":[7.256645E-1,0E0,5.8522266E-1,4.696828E-1,4.4280177E-1,0E0,0E0,0E0,1.53677985E-2,0E0,0E0],"parents":[2147483647,0,0,2,2,3,3,4,4,8,8],"right_children":[2,-1,4,6,8,-1,-1,-1,10,-1,-1],"split_conditions":[1.5E0,-1.05463244E-1,3.5E0,5E-1,5E-1,1.3100717E-3,1.5771914E-1,-1.0328371E-1,1.1E1,1.8733015E-2,6.7944095E-2],"split_indices":[1,0,1,4,3,0,0,0,2,0,0],"split_type":[0,0,0,0,0,0,0,0,0,0,0],"sum_hessian":[1.4714871E1,1.7466394E0,1.2968232E1,7.590861E0,5.377371E0,2.4239519E0,5.166909E0,1.8000689E0,3.577302E0,2.2023938E0,1.3749082E0],"tree_param":{"num_deleted":"0","num_feature":"5","num_nodes":"11","size_leaf_vector":"0"}},{"base_weights":[-2.7391857E-1,-2.2241898E-2,-4.234531E-1,1.8260552E-1,-2.9248822E-1],"categories":[],"categories_nodes":[],"categories_segments":[],"categories_sizes":[],"default_left":[1,1,0,0,0],"id":52,"left_children":[1,3,-1,-1,-1],"loss_changes":[3.1172884E-1,2.8790537E-1,0E0,0E0,0E0],"parents":[2147483647,0,0,1,1],"right_children":[2,4,-1,-1,-1],"split_conditions":[3.5E0,5E-1,-1.2703593E-1,5.4781657E-2,-8.774647E-2],"split_indices":[2,3,0,0,0],"split_type":[0,0,0,0,0],"sum_hessian":[7.533354E0,3.2358842E0,4.2974696E0,2.02513E0,1.2107542E0],"tree_param":{"num_deleted":"0","num_feature":"5","num_nodes":"5","size_leaf_vector":"0"}},{"base_weights":[1.1698286E-1,-6.348924E-2,2.3256534E-1,-3.79466E-1,1.6771019E-1,3.8758168E-1,-5.1052507E-2,2.3330478E-2,2.715941E-1,4.947849E-1,1.5458558E-1,-3.3099562E-1,2.425557E-1],"categories":[],"categories_nodes":[],"categories_segments":[],"categories_sizes":[],"default_left":[1,1,1,0,1,1,1,0,0,0,0,0,0],"id":53,"left_children":[1,3,5,-1,7,9,11,-1,-1,-1,-1,-1,-1],"loss_changes":[3.4016946E-1,5.6594867E-1,4.4730586E-1,0E0,6.361917E-2,8.346832E-2,4.3537214E-1,0E0,0E0,0E0,0E0,0E0,0E0],"parents":[2147483647,0,0,1,1,2,2,4,4,5,5,6,6],"right_children":[2,4,6,-1,8,10,12,-1,-1,-1,-1,-1,-1],"split_conditions":[3.5E0,5E-1,4.5E0,-1.13839805E-1,9.5E0,2.5E0,3.5E0,6.999144E-3,8.147824E-2,1.4843547E-1,4.6375677E-2,-9.929869E-2,7.2766714E-2],"split_indices":[0,4,0,0,2,1,1,0,0,0,0,0,0],"split_type":[0,0,0,0,0,0,0,0,0,0,0,0,0],"sum_hessian":[1.4599867E1,5.8758826E0,8.723984E0,2.2117815E0,3.6641014E0,5.4038506E0,3.320133E0,2.0456302E0,1.6184711E0,2.93148E0,2.4723709E0,1.6344324E0,1.6857007E0],"tree_param":{"num_deleted":"0","num_feature":"5","num_nodes":"13","size_leaf_vector":"0"}},{"base_weights":[2.298475E-1,5.8463223E-2,4.0548804E-1,-3.9533204E-1,3.459394E-1,4.5500788E-1,1.3507672E-1,5.215927E-1,-2.7496183E-1],"categories":[],"categories_nodes":[],"categories_segments":[],"categories_sizes":[],"default_left":[1,1,1,0,1,0,0,0,0],"id":54,"left_children":[1,3,5,-1,7,-1,-1,-1,-1],"loss_changes":[4.5322454E-1,1.3353239E0,4.1062117E-2,0E0,8.15007E-1,0E0,0E0,0E0,0E0],"parents":[2147483647,0,0,1,1,2,2,4,4],"right_children":[2,4,6,-1,8,-1,-1,-1,-1],"split_conditions":[4.5E0,4.5E0,1.15E1,-1.18599616E-1,5E-1,1.3650237E-1,4.0523015E-2,1.5647781E-1,-8.248855E-2],"split_indices":[0,1,2,0,3,0,0,0,0],"split_type":[0,0,0,0,0,0,0,0,0],"sum_hessian":[1.4843807E1,8.187536E0,6.6562715E0,3.0297482E0,5.1577883E0,5.049007E0,1.6072643E0,4.1450844E0,1.0127037E0],"tree_param":{"num_deleted":"0","num_feature":"5","num_nodes":"9","size_leaf_vector":"0"}},{"base_weights":[-3.3558464E-1,-1.1931647E-1,-4.2173305E-1,-2.9401723E-1,9.349097E-2],"categories":[],"categories_nodes":[],"categories_segments":[],"categories_sizes":[],"default_left":[1,1,0,0,0],"id":55,"left_children":[1,3,-1,-1,-1],"loss_changes":[9.489089E-2,1.6187704E-1,0E0,0E0,0E0],"parents":[2147483647,0,0,1,1],"right_children":[2,4,-1,-1,-1],"split_conditions":[2E0,6.5E0,-1.2651992E-1,-8.820517E-2,2.8047293E-2],"split_indices":[0,2,0,0,0],"split_type":[0,0,0,0,0],"sum_hessian":[6.7939644E0,2.614784E0,4.17918E0,1.2263887E0,1.3883953E0],"tree_param":{"num_deleted":"0","num_feature":"5","num_nodes":"5","size_leaf_vector":"0"}},{"base_weights":[-2.3482354E-1,2.7599594E-1,-4.2996463E-1],"categories":[],"categories_nodes":[],"categories_segments":[],"categories_sizes":[],"default_left":[1,0,0],"id":56,"left_children":[1,-1,-1],"loss_changes":[8.480618E-1,0E0,0E0],"parents":[2147483647,0,0],"right_children":[2,-1,-1],"split_conditions":[5E-1,8.279879E-2,-1.289894E-1],"split_indices":[0,0,0],"split_type":[0,0,0],"sum_hessian":[6.31721E0,1.6316669E0,4.6855435E0],"tree_param":{"num_deleted":"0","num_feature":"5","num_nodes":"3","size_leaf_vector":"0"}},{"base_weights":[-3.1124828E-2,1.640516E-1,-1.8494138E-1,-3.176232E-1,3.5457984E-1,1.5286928E-1,-3.9990884E-1],"categories":[],"categories_nodes":[],"categories_segments":[],"categories_sizes":[],"default_left":[1,1,1,0,0,0,0],"id":57,"left_children":[1,3,5,-1,-1,-1,-1],"loss_changes":[3.4926832E-1,5.9095293E-1,5.2670866E-1,0E0,0E0,0E0,0E0],"parents":[2147483647,0,0,1,1,2,2],"right_children":[2,4,6,-1,-1,-1,-1],"split_conditions":[2E0,5E-1,1.5E0,-9.5286965E-2,1.0637396E-1,4.5860786E-2,-1.1997265E-1],"split_indices":[0,0,1,0,0,0,0],"split_type":[0,0,0,0,0,0,0],"sum_hessian":[9.623382E0,4.21212E0,5.4112616E0,1.0048048E0,3.2073152E0,2.2167E0,3.1945615E0],"tree_param":{"num_deleted":"0","num_feature":"5","num_nodes":"7","size_leaf_vector":"0"}},{"base_weights":[1.15692645E-1,-3.3475286E-1,1.9626376E-1,3.4734732E-1,-3.3828888E-2,-4.2661504E-4,4.940064E-1,-3.2454342E-1,1.4103135E-1,2.3382232E-2,1.6950454E-1,3.2269683E-1,-5.3645425E-2],"categories":[],"categories_nodes":[],"categories_segments":[],"categories_sizes":[],"default_left":[1,0,1,1,1,0,0,0,1,0,1,0,0],"id":58,"left_children":[1,-1,3,5,7,-1,-1,-1,9,-1,11,-1,-1],"loss_changes":[5.888842E-1,0E0,4.5876125E-1,4.0063328E-1,3.5118175E-1,0E0,0E0,0E0,1.0938644E-2,0E0,1.3428198E-1,0E0,0E0],"parents":[2147483647,0,0,2,2,3,3,4,4,8,8,10,10],"right_children":[2,-1,4,6,8,-1,-1,-1,10,-1,12,-1,-1],"split_conditions":[1.5E0,-1.0042586E-1,3.5E0,5E-1,5E-1,-1.2798452E-4,1.4820193E-1,-9.736303E-2,4.5E0,7.01467E-3,5.5E0,9.680905E-2,-1.6093628E-2],"split_indices":[1,0,1,4,3,0,0,0,1,0,2,0,0],"split_type":[0,0,0,0,0,0,0,0,0,0,0,0,0],"sum_hessian":[1.3415612E1,1.5568799E0,1.1858732E1,6.850775E0,5.0079575E0,2.3278394E0,4.5229354E0,1.5593833E0,3.448574E0,1.0268612E0,2.421713E0,1.1714292E0,1.2502838E0],"tree_param":{"num_deleted":"0","num_feature":"5","num_nodes":"13","size_leaf_vector":"0"}},{"base_weights":[-2.527765E-1,-1.746592E-2,-4.0655282E-1,1.6487479E-1,-2.7456236E-1],"categories":[],"categories_nodes":[],"categories_segments":[],"categories_sizes":[],"default_left":[1,1,0,0,0],"id":59,"left_children":[1,3,-1,-1,-1],"loss_changes":[2.7143317E-1,2.3686846E-1,0E0,0E0,0E0],"parents":[2147483647,0,0,1,1],"right_children":[2,4,-1,-1,-1],"split_conditions":[3.5E0,5E-1,-1.2196585E-1,4.946244E-2,-8.236871E-2],"split_indices":[2,3,0,0,0],"split_type":[0,0,0,0,0],"sum_hessian":[6.697457E0,3.0871058E0,3.610351E0,2.0160005E0,1.0711052E0],"tree_param":{"num_deleted":"0","num_feature":"5","num_nodes":"5","size_leaf_vector":"0"}},{"base_weights":[1.0639931E-1,-5.8270127E-2,2.1380104E-1,-3.6447254E-1,1.6072893E-1,3.487515E-1,-3.384771E-2,4.0020872E-2,2.360569E-1,4.4923028E-1,1.37654E-1,-3.0813405E-1,2.2387147E-1],"categories":[],"categories_nodes":[],"categories_segments":[],"categories_sizes":[],"default_left":[1,1,1,0,1,1,1,0,0,0,0,0,0],"id":60,"left_children":[1,3,5,-1,7,9,11,-1,-1,-1,-1,-1,-1],"loss_changes":[2.671712E-1,4.9252436E-1,3.1028053E-1,0E0,3.1167783E-2,6.2654495E-2,3.56097E-1,0E0,0E0,0E0,0E0,0E0,0E0],"parents":[2147483647,0,0,1,1,2,2,4,4,5,5,6,6],"right_children":[2,4,6,-1,8,10,12,-1,-1,-1,-1,-1,-1],"split_conditions":[3.5E0,5E-1,4.5E0,-1.0934176E-1,9.5E0,2.5E0,3.5E0,1.2006262E-2,7.081707E-2,1.347691E-1,4.1296203E-2,-9.244022E-2,6.716144E-2],"split_indices":[0,4,0,0,2,1,1,0,0,0,0,0,0],"split_type":[0,0,0,0,0,0,0,0,0,0,0,0,0],"sum_hessian":[1.3402133E1,5.4711566E0,7.930977E0,2.0043826E0,3.466774E0,4.869309E0,3.0616674E0,1.9205341E0,1.5462399E0,2.534744E0,2.3345652E0,1.3883984E0,1.6732692E0],"tree_param":{"num_deleted":"0","num_feature":"5","num_nodes":"13","size_leaf_vector":"0"}},{"base_weights":[2.0834948E-1,5.01082E-2,3.645419E-1,-3.8343677E-1,3.151275E-1,4.1448992E-1,1.1336843E-1],"categories":[],"categories_nodes":[],"categories_segments":[],"categories_sizes":[],"default_left":[1,1,1,0,0,0,0],"id":61,"left_children":[1,3,5,-1,-1,-1,-1],"loss_changes":[3.3349746E-1,1.0663353E0,4.0868342E-2,0E0,0E0,0E0,0E0],"parents":[2147483647,0,0,1,1,2,2],"right_children":[2,4,6,-1,-1,-1,-1],"split_conditions":[4.5E0,5E-1,1.15E1,-1.15031034E-1,9.453825E-2,1.2434698E-1,3.401053E-2],"split_indices":[0,4,2,0,0,0,0],"split_type":[0,0,0,0,0,0,0],"sum_hessian":[1.3232192E1,7.2290874E0,6.003105E0,2.5730348E0,4.6560526E0,4.4649887E0,1.5381162E0],"tree_param":{"num_deleted":"0","num_feature":"5","num_nodes":"7","size_leaf_vector":"0"}},{"base_weights":[-3.1156456E-1,-9.710021E-2,-4.0523657E-1,-2.758594E-1,1.0212141E-1],"categories":[],"categories_nodes":[],"categories_segments":[],"categories_sizes":[],"default_left":[1,1,0,0,0],"id":62,"left_children":[1,3,-1,-1,-1],"loss_changes":[1.0062122E-1,1.5043557E-1,0E0,0E0,0E0],"parents":[2147483647,0,0,1,1],"right_children":[2,4,-1,-1,-1],"split_conditions":[2E0,6.5E0,-1.21570975E-1,-8.2757816E-2,3.0636424E-2],"split_indices":[0,2,0,0,0],"split_type":[0,0,0,0,0],"sum_hessian":[5.9673753E0,2.4331703E0,3.534205E0,1.0796908E0,1.3534794E0],"tree_param":{"num_deleted":"0","num_feature":"5","num_nodes":"5","size_leaf_vector":"0"}},{"base_weights":[-2.176939E-1,2.259011E-1,-4.1428888E-1],"categories":[],"categories_nodes":[],"categories_segments":[],"categories_sizes":[],"default_left":[1,0,0],"id":63,"left_children":[1,-1,-1],"loss_changes":[6.726365E-1,0E0,0E0],"parents":[2147483647,0,0],"right_children":[2,-1,-1],"split_conditions":[5E-1,6.777033E-2,-1.2428667E-1],"split_indices":[0,0,0],"split_type":[0,0,0],"sum_hessian":[5.639809E0,1.6861435E0,3.9536657E0],"tree_param":{"num_deleted":"0","num_feature":"5","num_nodes":"3","size_leaf_vector":"0"}},{"base_weights":[-2.6411885E-2,1.03758894E-1,-2.1806148E-1,-8.813554E-2,2.0845337E-1,-3.5107198E-1,3.809483E-2,-2.6345524E-1,1.2861161E-1,2.8948784E-1,-2.1189637E-2],"categories":[],"categories_nodes":[],"categories_segments":[],"categories_sizes":[],"default_left":[1,1,1,1,1,0,0,0,0,0,0],"id":64,"left_children":[1,3,5,7,9,-1,-1,-1,-1,-1,-1],"loss_changes":[2.7258635E-1,1.5186058E-1,1.6244231E-1,1.4971848E-1,9.166372E-2,0E0,0E0,0E0,0E0,0E0,0E0],"parents":[2147483647,0,0,1,1,2,2,3,3,4,4],"right_children":[2,4,6,8,10,-1,-1,-1,-1,-1,-1],"split_conditions":[3.5E0,5E-1,5E-1,7.5E0,7.5E0,-1.053216E-1,1.1428449E-2,-7.903658E-2,3.8583484E-2,8.684635E-2,-6.3568917E-3],"split_indices":[0,3,4,2,2,0,0,0,0,0,0],"split_type":[0,0,0,0,0,0,0,0,0,0,0],"sum_hessian":[9.01959E0,5.644427E0,3.3751636E0,2.0482872E0,3.5961397E0,1.9776964E0,1.3974673E0,1.0132259E0,1.0350612E0,2.4655263E0,1.1306134E0],"tree_param":{"num_deleted":"0","num_feature":"5","num_nodes":"11","size_leaf_vector":"0"}},{"base_weights":[1.0236943E-1,-3.172288E-1,1.7766844E-1,3.2204953E-1,-3.77278E-2,-6.1396984E-3,4.697566E-1,-3.075437E-1,1.20369986E-1,3.314846E-2,1.8345815E-1],"categories":[],"categories_nodes":[],"categories_segments":[],"categories_sizes":[],"default_left":[1,0,1,1,1,0,0,0,1,0,0],"id":65,"left_children":[1,-1,3,5,7,-1,-1,-1,9,-1,-1],"loss_changes":[4.7705168E-1,0E0,3.8316512E-1,3.5420388E-1,2.794299E-1,0E0,0E0,0E0,1.7590456E-2,0E0,0E0],"parents":[2147483647,0,0,2,2,3,3,4,4,8,8],"right_children":[2,-1,4,6,8,-1,-1,-1,10,-1,-1],"split_conditions":[1.5E0,-9.516864E-2,3.5E0,5E-1,5E-1,-1.8419096E-3,1.4092699E-1,-9.226311E-2,1.1E1,9.944539E-3,5.5037446E-2],"split_indices":[1,0,1,4,3,0,0,0,2,0,0],"split_type":[0,0,0,0,0,0,0,0,0,0,0],"sum_hessian":[1.2314947E1,1.3848807E0,1.0930067E1,6.247314E0,4.682753E0,2.236495E0,4.010819E0,1.3808554E0,3.3018975E0,2.0261319E0,1.2757655E0],"tree_param":{"num_deleted":"0","num_feature":"5","num_nodes":"11","size_leaf_vector":"0"}},{"base_weights":[-2.3458938E-1,-1.5686028E-2,-3.898343E-1,1.6668068E-1,-2.7630875E-1],"categories":[],"categories_nodes":[],"categories_segments":[],"categories_sizes":[],"default_left":[1,1,0,0,0],"id":66,"left_children":[1,3,-1,-1,-1],"loss_changes":[2.3260486E-1,2.3410888E-1,0E0,0E0,0E0],"parents":[2147483647,0,0,1,1],"right_children":[2,4,-1,-1,-1],"split_conditions":[3.5E0,5E-1,-1.16950296E-1,5.0004207E-2,-8.289263E-2],"split_indices":[2,4,0,0,0],"split_type":[0,0,0,0,0],"sum_hessian":[6.0245533E0,2.9566145E0,3.0679386E0,1.9515204E0,1.005094E0],"tree_param":{"num_deleted":"0","num_feature":"5","num_nodes":"5","size_leaf_vector":"0"}},{"base_weights":[1.0066026E-1,-4.766404E-2,1.988859E-1,-3.5055315E-1,1.6056238E-1,3.186366E-1,-2.298154E-2,5.6499436E-2,2.1458806E-1,4.1765925E-1,1.20064236E-1,2.2433528E-1,-2.926164E-1],"categories":[],"categories_nodes":[],"categories_segments":[],"categories_sizes":[],"default_left":[1,1,1,0,1,1,1,0,0,0,0,0,0],"id":67,"left_children":[1,3,5,-1,7,9,11,-1,-1,-1,-1,-1,-1],"loss_changes":[2.0567298E-1,4.4552812E-1,2.2770065E-1,0E0,1.22936815E-2,5.71028E-2,3.2173678E-1,0E0,0E0,0E0,0E0,0E0,0E0],"parents":[2147483647,0,0,1,1,2,2,4,4,5,5,6,6],"right_children":[2,4,6,-1,8,10,12,-1,-1,-1,-1,-1,-1],"split_conditions":[3.5E0,5E-1,4.5E0,-1.0516595E-1,9.5E0,2.5E0,5E-1,1.6949832E-2,6.437642E-2,1.2529778E-1,3.6019273E-2,6.730059E-2,-8.778492E-2],"split_indices":[0,4,0,0,2,1,3,0,0,0,0,0,0],"split_type":[0,0,0,0,0,0,0,0,0,0,0,0,0],"sum_hessian":[1.2466259E1,5.171642E0,7.2946177E0,1.8284433E0,3.3431985E0,4.454298E0,2.8403194E0,1.8416485E0,1.5015501E0,2.2359705E0,2.2183278E0,1.5690997E0,1.2712197E0],"tree_param":{"num_deleted":"0","num_feature":"5","num_nodes":"13","size_leaf_vector":"0"}},{"base_weights":[1.8754174E-1,4.1865777E-2,3.304068E-1,-3.7047368E-1,3.0744383E-1,3.7945464E-1,9.974069E-2],"categories":[],"categories_nodes":[],"categories_segments":[],"categories_sizes":[],"default_left":[1,1,1,0,0,0,0],"id":68,"left_children":[1,3,5,-1,-1,-1,-1],"loss_changes":[2.5943264E-1,9.512255E-1,3.5510182E-2,0E0,0E0,0E0,0E0],"parents":[2147483647,0,0,1,1,2,2],"right_children":[2,4,6,-1,-1,-1,-1],"split_conditions":[4.5E0,4.5E0,1.15E1,-1.1114211E-1,9.223315E-2,1.138364E-1,2.9922208E-2],"split_indices":[0,1,2,0,0,0,0],"split_type":[0,0,0,0,0,0,0],"sum_hessian":[1.2130179E1,6.646229E0,5.4839506E0,2.448966E0,4.197263E0,3.990409E0,1.4935416E0],"tree_param":{"num_deleted":"0","num_feature":"5","num_nodes":"7","size_leaf_vector":"0"}},{"base_weights":[-2.887709E-1,-7.914195E-2,-3.8882318E-1],"categories":[],"categories_nodes":[],"categories_segments":[],"categories_sizes":[],"default_left":[1,0,0],"id":69,"left_children":[1,-1,-1],"loss_changes":[1.01638615E-1,0E0,0E0],"parents":[2147483647,0,0],"right_children":[2,-1,-1],"split_conditions":[2E0,-2.3742586E-2,-1.1664696E-1],"split_indices":[0,0,0],"split_type":[0,0,0],"sum_hessian":[5.3131356E0,2.2952168E0,3.0179186E0],"tree_param":{"num_deleted":"0","num_feature":"5","num_nodes":"3","size_leaf_vector":"0"}},{"base_weights":[-1.98474E-1,1.9820243E-1,-4.270461E-1],"categories":[],"categories_nodes":[],"categories_segments":[],"categories_sizes":[],"default_left":[1,0,0],"id":70,"left_children":[1,-1,-1],"loss_changes":[6.35436E-1,0E0,0E0],"parents":[2147483647,0,0],"right_children":[2,-1,-1],"split_conditions":[1.5E0,5.9460733E-2,-1.2811384E-1],"split_indices":[1,0,0],"split_type":[0,0,0],"sum_hessian":[5.074772E0,1.9037564E0,3.1710155E0],"tree_param":{"num_deleted":"0","num_feature":"5","num_nodes":"3","size_leaf_vector":"0"}},{"base_weights":[-1.8070577E-2,1.3218431E-1,-1.473131E-1,-2.6902407E-1,3.1133544E-1,1.7442591E-1,-3.7689936E-1,4.621475E-3,4.48917E-1],"categories":[],"categories_nodes":[],"categories_segments":[],"categories_sizes":[],"default_left":[1,1,1,0,1,0,0,0,0],"id":71,"left_children":[1,3,5,-1,7,-1,-1,-1,-1],"loss_changes":[2.0475282E-1,4.3875232E-1,4.7955015E-1,0E0,1.6156495E-1,0E0,0E0,0E0,0E0],"parents":[2147483647,0,0,1,1,2,2,4,4],"right_children":[2,4,6,-1,8,-1,-1,-1,-1],"split_conditions":[2E0,5E-1,1.5E0,-8.070722E-2,1.5E0,5.232778E-2,-1.1306981E-1,1.3864426E-3,1.346751E-1],"split_indices":[0,3,1,0,1,0,0,0,0],"split_type":[0,0,0,0,0,0,0,0,0],"sum_hessian":[8.541031E0,3.9389365E0,4.602094E0,1.0610526E0,2.877884E0,2.0164828E0,2.5856113E0,1.211236E0,1.6666478E0],"tree_param":{"num_deleted":"0","num_feature":"5","num_nodes":"9","size_leaf_vector":"0"}},{"base_weights":[9.249227E-2,-3.0020145E-1,1.6304904E-1,2.9880545E-1,-3.3285856E-2,-7.287087E-3,4.4621354E-1,-3.006343E-1,1.0773879E-1,3.2969505E-1,-2.775649E-1],"categories":[],"categories_nodes":[],"categories_segments":[],"categories_sizes":[],"default_left":[1,0,1,1,1,0,0,0,1,0,0],"id":72,"left_children":[1,-1,3,5,7,-1,-1,-1,9,-1,-1],"loss_changes":[3.9160106E-1,0E0,3.0663896E-1,3.047107E-1,2.3787726E-1,0E0,0E0,0E0,4.596129E-1,0E0,0E0],"parents":[2147483647,0,0,2,2,3,3,4,4,8,8],"right_children":[2,-1,4,6,8,-1,-1,-1,10,-1,-1],"split_conditions":[1.5E0,-9.0060435E-2,3.5E0,5E-1,2E0,-2.186126E-3,1.3386407E-1,-9.019029E-2,3.5E0,9.890852E-2,-8.326948E-2],"split_indices":[1,0,1,4,0,0,0,0,0,0,0],"split_type":[0,0,0,0,0,0,0,0,0,0,0],"sum_hessian":[1.1366945E1,1.2355528E0,1.01313925E1,5.6811953E0,4.4501977E0,2.1556203E0,3.5255747E0,1.1459568E0,3.304241E0,2.1880991E0,1.1161418E0],"tree_param":{"num_deleted":"0","num_feature":"5","num_nodes":"11","size_leaf_vector":"0"}},{"base_weights":[-2.1755953E-1,-1.4312999E-2,-3.7277243E-1,-8.7027766E-2,9.497704E-2],"categories":[],"categories_nodes":[],"categories_segments":[],"categories_sizes":[],"default_left":[1,1,0,0,0],"id":73,"left_children":[1,3,-1,-1,-1],"loss_changes":[1.9837117E-1,3.8750023E-2,0E0,0E0,0E0],"parents":[2147483647,0,0,1,1],"right_children":[2,4,-1,-1,-1],"split_conditions":[3.5E0,3.5E0,-1.1183173E-1,-2.610833E-2,2.8493114E-2],"split_indices":[2,0,0,0,0],"split_type":[0,0,0,0,0],"sum_hessian":[5.4573503E0,2.835961E0,2.6213892E0,1.8252518E0,1.0107094E0],"tree_param":{"num_deleted":"0","num_feature":"5","num_nodes":"5","size_leaf_vector":"0"}},{"base_weights":[9.330986E-2,-4.528262E-2,1.8650065E-1,-3.3534354E-1,1.4881533E-1,2.9215762E-1,-1.1356511E-2,2.1183461E-1,5.3762913E-2,3.846382E-1,1.1252498E-1,-2.7735257E-1,2.1229574E-1],"categories":[],"categories_nodes":[],"categories_segments":[],"categories_sizes":[],"default_left":[1,1,1,0,1,1,1,0,0,0,0,0,0],"id":74,"left_children":[1,3,5,-1,7,9,11,-1,-1,-1,-1,-1,-1],"loss_changes":[1.7060128E-1,3.7940365E-1,1.6433996E-1,0E0,1.37631595E-2,4.0755153E-2,2.7566102E-1,0E0,0E0,0E0,0E0,0E0,0E0],"parents":[2147483647,0,0,1,1,2,2,4,4,5,5,6,6],"right_children":[2,4,6,-1,8,10,12,-1,-1,-1,-1,-1,-1],"split_conditions":[3.5E0,5E-1,4.5E0,-1.0060307E-1,4E0,2.5E0,3.5E0,6.355038E-2,1.6128875E-2,1.1539146E-1,3.3757497E-2,-8.3205774E-2,6.3688725E-2],"split_indices":[0,4,0,0,2,1,1,0,0,0,0,0,0],"split_type":[0,0,0,0,0,0,0,0,0,0,0,0,0],"sum_hessian":[1.1555107E1,4.852541E0,6.7025666E0,1.6536362E0,3.1989045E0,4.058626E0,2.6439404E0,1.1847878E0,2.0141168E0,1.9258754E0,2.1327505E0,1.0979778E0,1.5459628E0],"tree_param":{"num_deleted":"0","num_feature":"5","num_nodes":"13","size_leaf_vector":"0"}},{"base_weights":[1.6534844E-1,3.2457676E-2,2.9564407E-1,-3.6268565E-1,2.8102913E-1,3.4443477E-1,8.229895E-2],"categories":[],"categories_nodes":[],"categories_segments":[],"categories_sizes":[],"default_left":[1,1,1,0,0,0,0],"id":75,"left_children":[1,3,5,-1,-1,-1,-1],"loss_changes":[1.9874567E-1,7.97351E-1,3.361112E-2,0E0,0E0,0E0,0E0],"parents":[2147483647,0,0,1,1,2,2],"right_children":[2,4,6,-1,-1,-1,-1],"split_conditions":[4.5E0,5E-1,1.15E1,-1.088057E-1,8.430874E-2,1.0333043E-1,2.4689686E-2],"split_indices":[0,4,2,0,0,0,0],"split_type":[0,0,0,0,0,0,0],"sum_hessian":[1.1032371E1,6.080189E0,4.952181E0,2.1706E0,3.9095895E0,3.5303614E0,1.4218196E0],"tree_param":{"num_deleted":"0","num_feature":"5","num_nodes":"7","size_leaf_vector":"0"}},{"base_weights":[-2.6457635E-1,-5.9655122E-2,-3.7183627E-1],"categories":[],"categories_nodes":[],"categories_segments":[],"categories_sizes":[],"default_left":[1,0,0],"id":76,"left_children":[1,-1,-1],"loss_changes":[1.04254216E-1,0E0,0E0],"parents":[2147483647,0,0],"right_children":[2,-1,-1],"split_conditions":[2E0,-1.7896537E-2,-1.1155089E-1],"split_indices":[0,0,0],"split_type":[0,0,0],"sum_hessian":[4.752373E0,2.167505E0,2.5848682E0],"tree_param":{"num_deleted":"0","num_feature":"5","num_nodes":"3","size_leaf_vector":"0"}},{"base_weights":[-1.8038814E-1,1.7842023E-1,-4.1153783E-1],"categories":[],"categories_nodes":[],"categories_segments":[],"categories_sizes":[],"default_left":[1,0,0],"id":77,"left_children":[1,-1,-1],"loss_changes":[5.435535E-1,0E0,0E0],"parents":[2147483647,0,0],"right_children":[2,-1,-1],"split_conditions":[1.5E0,5.352607E-2,-1.2346135E-1],"split_indices":[1,0,0],"split_type":[0,0,0],"sum_hessian":[4.6683817E0,1.918483E0,2.749899E0],"tree_param":{"num_deleted":"0","num_feature":"5","num_nodes":"3","size_leaf_vector":"0"}},{"base_weights":[-1.335474E-2,1.21932626E-1,-1.389983E-1,-4.9761843E-2,3.0211738E-1,-3.5148302E-1,1.24859534E-1],"categories":[],"categories_nodes":[],"categories_segments":[],"categories_sizes":[],"default_left":[1,1,1,0,0,0,0],"id":78,"left_children":[1,3,5,-1,-1,-1,-1],"loss_changes":[1.6833667E-1,1.6418731E-1,3.2898065E-1,0E0,0E0,0E0,0E0],"parents":[2147483647,0,0,1,1,2,2],"right_children":[2,4,6,-1,-1,-1,-1],"split_conditions":[2.5E0,1.25E1,5E-1,-1.4928553E-2,9.063522E-2,-1.0544491E-1,3.745786E-2],"split_indices":[1,2,3,0,0,0,0],"split_type":[0,0,0,0,0,0,0],"sum_hessian":[7.9062467E0,3.821241E0,4.0850058E0,2.3273675E0,1.4938734E0,2.078831E0,2.0061748E0],"tree_param":{"num_deleted":"0","num_feature":"5","num_nodes":"7","size_leaf_vector":"0"}},{"base_weights":[7.714373E-2,-2.8300548E-1,1.4343245E-1,2.7446097E-1,-4.4030186E-2,-1.4932708E-2,4.2470565E-1,-2.875227E-1,1.0317801E-1,1.4497843E-1,2.5060432E-2],"categories":[],"categories_nodes":[],"categories_segments":[],"categories_sizes":[],"default_left":[1,0,1,1,1,0,0,0,1,0,0],"id":79,"left_children":[1,-1,3,5,7,-1,-1,-1,9,-1,-1],"loss_changes":[3.1189966E-1,0E0,2.6413316E-1,2.7496165E-1,2.118725E-1,0E0,0E0,0E0,9.114474E-3,0E0,0E0],"parents":[2147483647,0,0,2,2,3,3,4,4,8,8],"right_children":[2,-1,4,6,8,-1,-1,-1,10,-1,-1],"split_conditions":[1.5E0,-8.4901646E-2,3.5E0,5E-1,5E-1,-4.4798125E-3,1.2741171E-1,-8.625682E-2,5.5E0,4.349353E-2,7.51813E-3],"split_indices":[1,0,1,4,3,0,0,0,2,0,0],"split_type":[0,0,0,0,0,0,0,0,0,0,0],"sum_hessian":[1.0364221E1,1.1028901E0,9.261331E0,5.1780243E0,4.0833063E0,2.0773494E0,3.1006749E0,1.1793724E0,2.9039338E0,1.3341403E0,1.5697935E0],"tree_param":{"num_deleted":"0","num_feature":"5","num_nodes":"11","size_leaf_vector":"0"}},{"base_weights":[-1.9657388E-1,-4.4929637E-3,-3.5584393E-1,-1.1317366E-2,4.356341E-3],"categories":[],"categories_nodes":[],"categories_segments":[],"categories_sizes":[],"default_left":[1,1,0,0,0],"id":80,"left_children":[1,3,-1,-1,-1],"loss_changes":[1.813874E-1,2.7421027E-4,0E0,0E0,0E0],"parents":[2147483647,0,0,1,1],"right_children":[2,4,-1,-1,-1],"split_conditions":[3.5E0,3.5E0,-1.06753185E-1,-3.3952098E-3,1.3069024E-3],"split_indices":[2,1,0,0,0],"split_type":[0,0,0,0,0],"sum_hessian":[4.981361E0,2.7241838E0,2.257177E0,1.3805968E0,1.3435869E0],"tree_param":{"num_deleted":"0","num_feature":"5","num_nodes":"5","size_leaf_vector":"0"}},{"base_weights":[8.908813E-2,1.4536911E-1,-1.13347106E-1,-2.980431E-2,3.469803E-1,-3.4821573E-1,1.8198937E-1],"categories":[],"categories_nodes":[],"categories_segments":[],"categories_sizes":[],"default_left":[1,1,0,1,0,0,0],"id":81,"left_children":[1,3,-1,5,-1,-1,-1],"loss_changes":[1.5112779E-1,3.5240647E-1,0E0,4.7497597E-1,0E0,0E0,0E0],"parents":[2147483647,0,0,1,1,3,3],"right_children":[2,4,-1,6,-1,-1,-1],"split_conditions":[4.5E0,3.5E0,-3.4004133E-2,5E-1,1.04094096E-1,-1.04464725E-1,5.4596815E-2],"split_indices":[1,1,0,3,0,0,0],"split_type":[0,0,0,0,0,0,0],"sum_hessian":[1.0818448E1,8.685583E0,2.1328654E0,5.1034927E0,3.5820904E0,1.7813209E0,3.3221717E0],"tree_param":{"num_deleted":"0","num_feature":"5","num_nodes":"7","size_leaf_vector":"0"}},{"base_weights":[1.4992455E-1,2.2759525E-2,2.974228E-1,-3.677543E-1,2.6957715E-1,4.2887908E-1,-5.01423E-2],"categories":[],"categories_nodes":[],"categories_segments":[],"categories_sizes":[],"default_left":[1,1,1,0,0,0,0],"id":82,"left_children":[1,3,5,-1,-1,-1,-1],"loss_changes":[2.0277861E-1,7.817764E-1,2.5404587E-1,0E0,0E0,0E0,0E0],"parents":[2147483647,0,0,1,1,2,2],"right_children":[2,4,6,-1,-1,-1,-1],"split_conditions":[4.5E0,5E-1,5E-1,-1.103263E-1,8.087315E-2,1.2866373E-1,-1.5042691E-2],"split_indices":[1,3,3,0,0,0,0],"split_type":[0,0,0,0,0,0,0],"sum_hessian":[1.0171939E1,6.0823603E0,4.089578E0,2.1657443E0,3.9166157E0,2.7975383E0,1.29204E0],"tree_param":{"num_deleted":"0","num_feature":"5","num_nodes":"7","size_leaf_vector":"0"}},{"base_weights":[-2.428765E-1,-4.664597E-2,-3.5464895E-1],"categories":[],"categories_nodes":[],"categories_segments":[],"categories_sizes":[],"default_left":[1,0,0],"id":83,"left_children":[1,-1,-1],"loss_changes":[9.9705964E-2,0E0,0E0],"parents":[2147483647,0,0],"right_children":[2,-1,-1],"split_conditions":[2E0,-1.3993791E-2,-1.06394686E-1],"split_indices":[0,0,0],"split_type":[0,0,0],"sum_hessian":[4.300141E0,2.074836E0,2.2253046E0],"tree_param":{"num_deleted":"0","num_feature":"5","num_nodes":"3","size_leaf_vector":"0"}},{"base_weights":[-1.6227922E-1,1.9846468E-1,-3.768069E-1],"categories":[],"categories_nodes":[],"categories_segments":[],"categories_sizes":[],"default_left":[1,0,0],"id":84,"left_children":[1,-1,-1],"loss_changes":[4.8739457E-1,0E0,0E0],"parents":[2147483647,0,0],"right_children":[2,-1,-1],"split_conditions":[5E-1,5.9539404E-2,-1.1304208E-1],"split_indices":[0,0,0],"split_type":[0,0,0],"sum_hessian":[4.33162E0,1.6432507E0,2.6883693E0],"tree_param":{"num_deleted":"0","num_feature":"5","num_nodes":"3","size_leaf_vector":"0"}},{"base_weights":[-3.5093096E-3,1.3921735E-1,-1.3013278E-1,1.9937454E-1,-3.1046834E-2,-3.6543196E-1,1.9355556E-1],"categories":[],"categories_nodes":[],"categories_segments":[],"categories_sizes":[],"default_left":[1,1,1,0,0,0,0],"id":85,"left_children":[1,3,5,-1,-1,-1,-1],"loss_changes":[1.7263752E-1,5.2307993E-2,4.5516428E-1,0E0,0E0,0E0,0E0],"parents":[2147483647,0,0,1,1,2,2],"right_children":[2,4,6,-1,-1,-1,-1],"split_conditions":[2E0,7.5E0,5E-1,5.9812363E-2,-9.314051E-3,-1.09629594E-1,5.806667E-2],"split_indices":[0,2,4,0,0,0,0],"split_type":[0,0,0,0,0,0,0],"sum_hessian":[7.5500283E0,3.502567E0,4.047461E0,2.4618E0,1.040767E0,2.269053E0,1.7784083E0],"tree_param":{"num_deleted":"0","num_feature":"5","num_nodes":"7","size_leaf_vector":"0"}},{"base_weights":[6.1955854E-2,-1.7177102E-1,1.4148046E-1,2.4237534E-1,-2.865504E-2,-7.336548E-2,3.991927E-1,1.646009E-1,-2.7704194E-1],"categories":[],"categories_nodes":[],"categories_segments":[],"categories_sizes":[],"default_left":[1,0,1,1,1,0,0,0,0],"id":86,"left_children":[1,-1,3,5,7,-1,-1,-1,-1],"loss_changes":[2.2038883E-1,0E0,1.514774E-1,2.962209E-1,2.389857E-1,0E0,0E0,0E0,0E0],"parents":[2147483647,0,0,2,2,3,3,4,4],"right_children":[2,-1,4,6,8,-1,-1,-1,-1],"split_conditions":[4.5E0,-5.1531307E-2,3.5E0,2E0,5E-1,-2.2009645E-2,1.1975781E-1,4.938027E-2,-8.311258E-2],"split_indices":[2,0,0,0,3,0,0,0,0],"split_type":[0,0,0,0,0,0,0,0,0],"sum_hessian":[9.549642E0,2.1298707E0,7.419771E0,4.391119E0,3.0286522E0,1.6337788E0,2.7573404E0,1.8930762E0,1.1355761E0],"tree_param":{"num_deleted":"0","num_feature":"5","num_nodes":"9","size_leaf_vector":"0"}},{"base_weights":[-1.7888232E-1,5.7339744E-4,-3.3884025E-1,-1.0572214E-2,1.1660494E-2],"categories":[],"categories_nodes":[],"categories_segments":[],"categories_sizes":[],"default_left":[1,1,0,0,0],"id":87,"left_children":[1,3,-1,-1,-1],"loss_changes":[1.6049215E-1,5.718502E-4,0E0,0E0,0E0],"parents":[2147483647,0,0,1,1],"right_children":[2,4,-1,-1,-1],"split_conditions":[3.5E0,3.5E0,-1.0165208E-1,-3.1716642E-3,3.4981484E-3],"split_indices":[2,1,0,0,0],"split_type":[0,0,0,0,0],"sum_hessian":[4.584249E0,2.63004E0,1.9542089E0,1.3347178E0,1.2953223E0],"tree_param":{"num_deleted":"0","num_feature":"5","num_nodes":"5","size_leaf_vector":"0"}},{"base_weights":[7.96333E-2,-6.2106512E-2,1.7622381E-1,-3.274213E-1,1.3614035E-1,2.8247228E-1,-2.1633444E-2,1.8590276E-1,4.83822E-2,3.5738012E-1,1.1620637E-1,1.9381994E-1,-2.6129267E-1],"categories":[],"categories_nodes":[],"categories_segments":[],"categories_sizes":[],"default_left":[1,1,1,0,1,1,1,0,0,0,0,0,0],"id":88,"left_children":[1,3,5,-1,7,9,11,-1,-1,-1,-1,-1,-1],"loss_changes":[1.645145E-1,3.2257923E-1,1.5182732E-1,0E0,7.3008463E-3,1.5524536E-2,2.2365466E-1,0E0,0E0,0E0,0E0,0E0,0E0],"parents":[2147483647,0,0,1,1,2,2,4,4,5,5,6,6],"right_children":[2,4,6,-1,8,10,12,-1,-1,-1,-1,-1,-1],"split_conditions":[3.5E0,5E-1,4.5E0,-9.82264E-2,4E0,2.5E0,5E-1,5.577083E-2,1.451466E-2,1.0721404E-1,3.486191E-2,5.8145985E-2,-7.8387804E-2],"split_indices":[0,4,0,0,2,1,3,0,0,0,0,0,0],"split_type":[0,0,0,0,0,0,0,0,0,0,0,0,0],"sum_hessian":[1.0217074E1,4.2854657E0,5.931608E0,1.5540665E0,2.731399E0,3.5809808E0,2.3506274E0,1.0293583E0,1.7020408E0,1.676305E0,1.9046758E0,1.3385453E0,1.0120822E0],"tree_param":{"num_deleted":"0","num_feature":"5","num_nodes":"13","size_leaf_vector":"0"}},{"base_weights":[1.3928615E-1,-2.801686E-3,2.772936E-1,-3.4714592E-1,2.4199125E-1,3.156175E-1,8.934907E-2],"categories":[],"categories_nodes":[],"categories_segments":[],"categories_sizes":[],"default_left":[1,1,1,0,0,0,0],"id":89,"left_children":[1,3,5,-1,-1,-1,-1],"loss_changes":[2.0368071E-1,5.9720945E-1,9.679705E-3,0E0,0E0,0E0,0E0],"parents":[2147483647,0,0,1,1,2,2],"right_children":[2,4,6,-1,-1,-1,-1],"split_conditions":[4.5E0,5E-1,1.15E1,-1.04143776E-1,7.259738E-2,9.468526E-2,2.6804721E-2],"split_indices":[0,4,2,0,0,0,0],"split_type":[0,0,0,0,0,0,0],"sum_hessian":[9.347389E0,5.088322E0,4.2590666E0,1.9405199E0,3.1478024E0,2.973439E0,1.2856275E0],"tree_param":{"num_deleted":"0","num_feature":"5","num_nodes":"7","size_leaf_vector":"0"}},{"base_weights":[-2.2220474E-1,-2.4831563E-2,-3.467287E-1],"categories":[],"categories_nodes":[],"categories_segments":[],"categories_sizes":[],"default_left":[1,0,0],"id":90,"left_children":[1,-1,-1],"loss_changes":[1.1239283E-1,0E0,0E0],"parents":[2147483647,0,0],"right_children":[2,-1,-1],"split_conditions":[5E-1,-7.449469E-3,-1.0401862E-1],"split_indices":[3,0,0],"split_type":[0,0,0],"sum_hessian":[3.9232695E0,1.9816785E0,1.9415911E0],"tree_param":{"num_deleted":"0","num_feature":"5","num_nodes":"3","size_leaf_vector":"0"}},{"base_weights":[-1.4775917E-1,1.8088952E-1,-3.9131868E-1],"categories":[],"categories_nodes":[],"categories_segments":[],"categories_sizes":[],"default_left":[1,0,0],"id":91,"left_children":[1,-1,-1],"loss_changes":[4.6855307E-1,0E0,0E0],"parents":[2147483647,0,0],"right_children":[2,-1,-1],"split_conditions":[1.5E0,5.426686E-2,-1.1739561E-1],"split_indices":[1,0,0],"split_type":[0,0,0],"sum_hessian":[3.9692683E0,1.7990357E0,2.1702325E0],"tree_param":{"num_deleted":"0","num_feature":"5","num_nodes":"3","size_leaf_vector":"0"}},{"base_weights":[-2.2353843E-4,-1.0113467E-1,1.5320824E-1,8.9747794E-2,-3.2779944E-1,2.6329845E-1,-4.5059457E-2,1.8723755E-1,-8.473184E-2],"categories":[],"categories_nodes":[],"categories_segments":[],"categories_sizes":[],"default_left":[1,1,1,1,0,0,0,0,0],"id":92,"left_children":[1,3,5,7,-1,-1,-1,-1,-1],"loss_changes":[1.419154E-1,2.6859438E-1,9.125383E-2,8.026323E-2,0E0,0E0,0E0,0E0,0E0],"parents":[2147483647,0,0,1,1,2,2,3,3],"right_children":[2,4,6,8,-1,-1,-1,-1,-1],"split_conditions":[1.15E1,2E0,2E0,4E0,-9.833983E-2,7.8989536E-2,-1.3517838E-2,5.6171264E-2,-2.5419554E-2],"split_indices":[2,0,1,2,0,0,0,0,0],"split_type":[0,0,0,0,0,0,0,0,0],"sum_hessian":[7.165145E0,4.5279737E0,2.6371713E0,2.7859101E0,1.7420635E0,1.4847522E0,1.152419E0,1.7403673E0,1.0455427E0],"tree_param":{"num_deleted":"0","num_feature":"5","num_nodes":"9","size_leaf_vector":"0"}},{"base_weights":[5.3481147E-2,-1.4976454E-1,1.2451927E-1,-6.469836E-2,1.8264595E-1,3.470383E-1,-1.5681092E-2,-4.4150714E-2,3.1119207E-2],"categories":[],"categories_nodes":[],"categories_segments":[],"categories_sizes":[],"default_left":[1,0,1,0,1,0,1,0,0],"id":93,"left_children":[1,-1,3,-1,5,-1,7,-1,-1],"loss_changes":[1.6403565E-1,0E0,9.9889845E-2,0E0,2.1369335E-1,0E0,6.505862E-3,0E0,0E0],"parents":[2147483647,0,0,2,2,4,4,6,6],"right_children":[2,-1,4,-1,6,-1,8,-1,-1],"split_conditions":[4.5E0,-4.4929363E-2,2E0,-1.940951E-2,3.5E0,1.0411149E-1,1.25E1,-1.3245215E-2,9.335763E-3],"split_indices":[2,0,0,0,0,0,2,0,0],"split_type":[0,0,0,0,0,0,0,0,0],"sum_hessian":[9.069617E0,2.0619597E0,7.0076575E0,1.6202521E0,5.3874054E0,2.5357258E0,2.8516793E0,1.8082792E0,1.0434003E0],"tree_param":{"num_deleted":"0","num_feature":"5","num_nodes":"9","size_leaf_vector":"0"}},{"base_weights":[-1.6364306E-1,7.4588223E-3,-3.2737437E-1,3.8365352E-1,-3.1134787E-1],"categories":[],"categories_nodes":[],"categories_segments":[],"categories_sizes":[],"default_left":[1,1,0,0,0],"id":94,"left_children":[1,3,-1,-1,-1],"loss_changes":[1.4994814E-1,5.4550445E-1,0E0,0E0,0E0],"parents":[2147483647,0,0,1,1],"right_children":[2,4,-1,-1,-1],"split_conditions":[5E-1,5E-1,-9.821232E-2,1.1509606E-1,-9.340437E-2],"split_indices":[3,4,0,0,0],"split_type":[0,0,0,0,0],"sum_hessian":[4.2653117E0,2.5524278E0,1.7128838E0,1.0775291E0,1.4748987E0],"tree_param":{"num_deleted":"0","num_feature":"5","num_nodes":"5","size_leaf_vector":"0"}},{"base_weights":[7.539694E-2,-4.723897E-2,1.7094068E-1,-3.3027908E-1,1.5453792E-1,3.0717203E-1,-9.2005365E-2],"categories":[],"categories_nodes":[],"categories_segments":[],"categories_sizes":[],"default_left":[1,1,1,0,0,0,0],"id":95,"left_children":[1,3,5,-1,-1,-1,-1],"loss_changes":[1.3180579E-1,3.5988426E-1,2.4863766E-1,0E0,0E0,0E0,0E0],"parents":[2147483647,0,0,1,1,2,2],"right_children":[2,4,6,-1,-1,-1,-1],"split_conditions":[3.5E0,5E-1,4.5E0,-9.908373E-2,4.6361376E-2,9.215161E-2,-2.760161E-2],"split_indices":[1,3,1,0,0,0,0],"split_type":[0,0,0,0,0,0,0],"sum_hessian":[9.559849E0,4.407783E0,5.1520658E0,1.5694304E0,2.8383524E0,3.282975E0,1.8690908E0],"tree_param":{"num_deleted":"0","num_feature":"5","num_nodes":"7","size_leaf_vector":"0"}},{"base_weights":[1.2439929E-1,-1.2906577E-3,2.720911E-1,-3.4964535E-1,2.3512465E-1,3.9268285E-1,-4.248309E-2],"categories":[],"categories_nodes":[],"categories_segments":[],"categories_sizes":[],"default_left":[1,1,1,0,0,0,0],"id":96,"left_children":[1,3,5,-1,-1,-1,-1],"loss_changes":[1.7869467E-1,5.916269E-1,1.844221E-1,0E0,0E0,0E0,0E0],"parents":[2147483647,0,0,1,1,2,2],"right_children":[2,4,6,-1,-1,-1,-1],"split_conditions":[4.5E0,5E-1,5E-1,-1.0489361E-1,7.0537396E-2,1.1780486E-1,-1.2744928E-2],"split_indices":[1,3,3,0,0,0,0],"split_type":[0,0,0,0,0,0,0],"sum_hessian":[8.607276E0,5.1855154E0,3.4217603E0,1.9028083E0,3.2827072E0,2.2940419E0,1.1277184E0],"tree_param":{"num_deleted":"0","num_feature":"5","num_nodes":"7","size_leaf_vector":"0"}},{"base_weights":[-2.0150846E-1,-1.55712245E-2,-3.2881632E-1],"categories":[],"categories_nodes":[],"categories_segments":[],"categories_sizes":[],"default_left":[1,0,0],"id":97,"left_children":[1,-1,-1],"loss_changes":[1.04378924E-1,0E0,0E0],"parents":[2147483647,0,0],"right_children":[2,-1,-1],"split_conditions":[5E-1,-4.6713674E-3,-9.8644905E-2],"split_indices":[3,0,0],"split_type":[0,0,0],"sum_hessian":[3.6258192E0,1.929717E0,1.6961021E0],"tree_param":{"num_deleted":"0","num_feature":"5","num_nodes":"3","size_leaf_vector":"0"}},{"base_weights":[-1.3128226E-1,1.6695127E-1,-3.7360212E-1],"categories":[],"categories_nodes":[],"categories_segments":[],"categories_sizes":[],"default_left":[1,0,0],"id":98,"left_children":[1,-1,-1],"loss_changes":[4.0291774E-1,0E0,0E0],"parents":[2147483647,0,0],"right_children":[2,-1,-1],"split_conditions":[1.5E0,5.0085384E-2,-1.1208064E-1],"split_indices":[1,0,0],"split_type":[0,0,0],"sum_hessian":[3.7122493E0,1.8035598E0,1.9086895E0],"tree_param":{"num_deleted":"0","num_feature":"5","num_nodes":"3","size_leaf_vector":"0"}},{"base_weights":[4.254237E-3,9.317508E-2,-1.48183E-1,-8.349035E-4,2.3119551E-1,-2.875143E-1,7.567613E-2,1.3905157E-1,-1.6083132E-1],"categories":[],"categories_nodes":[],"categories_segments":[],"categories_sizes":[],"default_left":[1,1,1,1,0,0,0,0,0],"id":99,"left_children":[1,3,5,7,-1,-1,-1,-1,-1],"loss_changes":[1.1999857E-1,7.2360314E-2,1.2382344E-1,1.1871164E-1,0E0,0E0,0E0,0E0,0E0],"parents":[2147483647,0,0,1,1,2,2,3,3],"right_children":[2,4,6,8,-1,-1,-1,-1,-1],"split_conditions":[3.5E0,1.1E1,5E-1,4E0,6.9358654E-2,-8.625429E-2,2.270284E-2,4.1715473E-2,-4.8249397E-2],"split_indices":[0,2,4,2,0,0,0,0,0],"split_type":[0,0,0,0,0,0,0,0,0],"sum_hessian":[6.834215E0,4.561898E0,2.2723167E0,3.3048284E0,1.2570701E0,1.2253177E0,1.046999E0,1.8330674E0,1.471761E0],"tree_param":{"num_deleted":"0","num_feature":"5","num_nodes":"9","size_leaf_vector":"0"}},{"base_weights":[4.245897E-2,-1.3572235E-1,1.0532816E-1,-6.954894E-2,1.62232E-1,3.1527987E-1,-2.16564E-2,-4.5791645E-2,5.2021826E-3],"categories":[],"categories_nodes":[],"categories_segments":[],"categories_sizes":[],"default_left":[1,0,1,0,1,0,1,0,0],"id":100,"left_children":[1,-1,3,-1,5,-1,7,-1,-1],"loss_changes":[1.22016646E-1,0E0,8.762035E-2,0E0,1.7816441E-1,0E0,2.637387E-3,0E0,0E0],"parents":[2147483647,0,0,2,2,4,4,6,6],"right_children":[2,-1,4,-1,6,-1,8,-1,-1],"split_conditions":[4.5E0,-4.0716708E-2,2E0,-2.0864684E-2,3.5E0,9.4583966E-2,9E0,-1.3737494E-2,1.5606548E-3],"split_indices":[2,0,0,0,0,0,2,0,0],"split_type":[0,0,0,0,0,0,0,0,0],"sum_hessian":[8.616155E0,1.9449759E0,6.6711783E0,1.5832648E0,5.0879135E0,2.3868515E0,2.701062E0,1.051375E0,1.649687E0],"tree_param":{"num_deleted":"0","num_feature":"5","num_nodes":"9","size_leaf_vector":"0"}},{"base_weights":[-1.5165733E-1,1.1390563E-2,-3.0993494E-1,3.4381476E-1,-2.9272676E-1],"categories":[],"categories_nodes":[],"categories_segments":[],"categories_sizes":[],"default_left":[1,1,0,0,0],"id":101,"left_children":[1,3,-1,-1,-1],"loss_changes":[1.289675E-1,4.4020295E-1,0E0,0E0,0E0],"parents":[2147483647,0,0,1,1],"right_children":[2,4,-1,-1,-1],"split_conditions":[5E-1,5E-1,-9.298049E-2,1.0314443E-1,-8.781803E-2],"split_indices":[3,4,0,0,0],"split_type":[0,0,0,0,0],"sum_hessian":[3.860619E0,2.3587813E0,1.5018376E0,1.0645791E0,1.2942022E0],"tree_param":{"num_deleted":"0","num_feature":"5","num_nodes":"5","size_leaf_vector":"0"}},{"base_weights":[6.729851E-2,-6.182765E-2,1.5733998E-1,-3.092564E-1,1.252406E-1,2.5691295E-1,-2.2594515E-2,4.48442E-2,1.5543313E-1,3.2114217E-1,1.0520707E-1,9.558612E-3,-4.2265784E-2],"categories":[],"categories_nodes":[],"categories_segments":[],"categories_sizes":[],"default_left":[1,1,1,0,1,1,1,0,0,0,0,0,0],"id":102,"left_children":[1,3,5,-1,7,9,11,-1,-1,-1,-1,-1,-1],"loss_changes":[1.2641954E-1,2.6281324E-1,1.16803184E-1,0E0,1.449421E-3,5.8625042E-3,2.3812985E-3,0E0,0E0,0E0,0E0,0E0,0E0],"parents":[2147483647,0,0,1,1,2,2,4,4,5,5,6,6],"right_children":[2,4,6,-1,8,10,12,-1,-1,-1,-1,-1,-1],"split_conditions":[3.5E0,5E-1,4.5E0,-9.2776924E-2,9.5E0,2.5E0,9E0,1.345326E-2,4.6629943E-2,9.634265E-2,3.1562123E-2,2.8675837E-3,-1.2679736E-2],"split_indices":[0,4,0,0,2,1,2,0,0,0,0,0,0],"split_type":[0,0,0,0,0,0,0,0,0,0,0,0,0],"sum_hessian":[9.036511E0,3.841236E0,5.195276E0,1.3725874E0,2.4686487E0,3.06908E0,2.1261957E0,1.3524997E0,1.116149E0,1.3715287E0,1.6975515E0,1.0021847E0,1.1240109E0],"tree_param":{"num_deleted":"0","num_feature":"5","num_nodes":"13","size_leaf_vector":"0"}},{"base_weights":[1.15920655E-1,-1.798008E-2,2.4797052E-1,-3.2471648E-1,2.1241896E-1],"categories":[],"categories_nodes":[],"categories_segments":[],"categories_sizes":[],"default_left":[1,1,0,0,0],"id":103,"left_children":[1,3,-1,-1,-1],"loss_changes":[1.6255908E-1,4.486283E-1,0E0,0E0,0E0],"parents":[2147483647,0,0,1,1],"right_children":[2,4,-1,-1,-1],"split_conditions":[4.5E0,4.5E0,7.439116E-2,-9.741495E-2,6.372569E-2],"split_indices":[0,1,0,0,0],"split_type":[0,0,0,0,0],"sum_hessian":[7.941543E0,4.372051E0,3.5694928E0,1.6997553E0,2.6722953E0],"tree_param":{"num_deleted":"0","num_feature":"5","num_nodes":"5","size_leaf_vector":"0"}},{"base_weights":[-1.8268003E-1,3.3220944E-3,-3.1284267E-1],"categories":[],"categories_nodes":[],"categories_segments":[],"categories_sizes":[],"default_left":[1,0,0],"id":104,"left_children":[1,-1,-1],"loss_changes":[1.0677007E-1,0E0,0E0],"parents":[2147483647,0,0],"right_children":[2,-1,-1],"split_conditions":[2E0,9.966284E-4,-9.38528E-2],"split_indices":[0,0,0],"split_type":[0,0,0],"sum_hessian":[3.36714E0,1.7874112E0,1.579729E0],"tree_param":{"num_deleted":"0","num_feature":"5","num_nodes":"3","size_leaf_vector":"0"}},{"base_weights":[-1.1947208E-1,1.7892352E-1,-3.3974835E-1],"categories":[],"categories_nodes":[],"categories_segments":[],"categories_sizes":[],"default_left":[1,0,0],"id":105,"left_children":[1,-1,-1],"loss_changes":[3.565554E-1,0E0,0E0],"parents":[2147483647,0,0],"right_children":[2,-1,-1],"split_conditions":[5E-1,5.3677056E-2,-1.0192451E-1],"split_indices":[0,0,0],"split_type":[0,0,0],"sum_hessian":[3.4997535E0,1.5660487E0,1.9337047E0],"tree_param":{"num_deleted":"0","num_feature":"5","num_nodes":"3","size_leaf_vector":"0"}},{"base_weights":[8.992295E-3,1.2773176E-1,-1.119622E-1,-3.2497033E-2,2.7147102E-1,-3.236327E-1,1.4600436E-1],"categories":[],"categories_nodes":[],"categories_segments":[],"categories_sizes":[],"default_left":[1,1,1,0,0,0,0],"id":106,"left_children":[1,3,5,-1,-1,-1,-1],"loss_changes":[1.23135336E-1,1.0765023E-1,2.8132927E-1,0E0,0E0,0E0,0E0],"parents":[2147483647,0,0,1,1,2,2],"right_children":[2,4,6,-1,-1,-1,-1],"split_conditions":[2.5E0,1.25E1,5E-1,-9.749111E-3,8.144131E-2,-9.708981E-2,4.380131E-2],"split_indices":[1,2,3,0,0,0,0],"split_type":[0,0,0,0,0,0,0],"sum_hessian":[6.577891E0,3.2910643E0,3.2868266E0,1.922233E0,1.3688314E0,1.6655953E0,1.6212314E0],"tree_param":{"num_deleted":"0","num_feature":"5","num_nodes":"7","size_leaf_vector":"0"}},{"base_weights":[3.7643466E-2,-6.756573E-2,1.5735832E-1,7.905945E-2,-3.0165976E-1,2.3145238E-1,-5.858857E-3,-3.0834353E-1,3.3613288E-1],"categories":[],"categories_nodes":[],"categories_segments":[],"categories_sizes":[],"default_left":[1,1,1,1,0,0,0,0,0],"id":107,"left_children":[1,3,5,7,-1,-1,-1,-1,-1],"loss_changes":[1.274767E-1,2.1734226E-1,5.7466455E-2,5.277559E-1,0E0,0E0,0E0,0E0,0E0],"parents":[2147483647,0,0,1,1,2,2,3,3],"right_children":[2,4,6,8,-1,-1,-1,-1,-1],"split_conditions":[5E-1,3.5E0,1.15E1,2E0,-9.049793E-2,6.9435716E-2,-1.7576573E-3,-9.250306E-2,1.0083987E-1],"split_indices":[4,0,2,0,0,0,0,0,0],"split_type":[0,0,0,0,0,0,0,0,0],"sum_hessian":[8.276991E0,4.6372447E0,3.6397464E0,3.2585323E0,1.3787125E0,2.2157989E0,1.4239476E0,1.2202339E0,2.0382984E0],"tree_param":{"num_deleted":"0","num_feature":"5","num_nodes":"9","size_leaf_vector":"0"}},{"base_weights":[-1.4455014E-1,1.175987E-2,-2.9384777E-1,-6.076398E-3,2.435504E-2],"categories":[],"categories_nodes":[],"categories_segments":[],"categories_sizes":[],"default_left":[1,1,0,0,0],"id":108,"left_children":[1,3,-1,-1,-1],"loss_changes":[1.0922322E-1,8.614018E-4,0E0,0E0,0E0],"parents":[2147483647,0,0,1,1],"right_children":[2,4,-1,-1,-1],"split_conditions":[3.5E0,3.5E0,-8.815433E-2,-1.8229195E-3,7.3065124E-3],"split_indices":[2,1,0,0,0],"split_type":[0,0,0,0,0],"sum_hessian":[3.532241E0,2.1756423E0,1.3565989E0,1.1146815E0,1.0609609E0],"tree_param":{"num_deleted":"0","num_feature":"5","num_nodes":"5","size_leaf_vector":"0"}},{"base_weights":[6.401309E-2,-6.264435E-2,1.6279314E-1,-3.153813E-1,1.3368677E-1,-8.442785E-2,2.893111E-1],"categories":[],"categories_nodes":[],"categories_segments":[],"categories_sizes":[],"default_left":[1,1,1,0,0,0,0],"id":109,"left_children":[1,3,5,-1,-1,-1,-1],"loss_changes":[1.2958199E-1,2.8546003E-1,2.0080003E-1,0E0,0E0,0E0,0E0],"parents":[2147483647,0,0,1,1,2,2],"right_children":[2,4,6,-1,-1,-1,-1],"split_conditions":[3.5E0,5E-1,5E-1,-9.4614394E-2,4.0106032E-2,-2.5328355E-2,8.679333E-2],"split_indices":[1,3,4,0,0,0,0],"split_type":[0,0,0,0,0,0,0],"sum_hessian":[8.542144E0,3.9032066E0,4.6389375E0,1.4413645E0,2.461842E0,1.6829904E0,2.955947E0],"tree_param":{"num_deleted":"0","num_feature":"5","num_nodes":"7","size_leaf_vector":"0"}},{"base_weights":[1.0236101E-1,-1.1571172E-2,2.3372586E-1,-3.3103567E-1,2.140952E-1,3.5951725E-1,-5.4418966E-2],"categories":[],"categories_nodes":[],"categories_segments":[],"categories_sizes":[],"default_left":[1,1,1,0,0,0,0],"id":110,"left_children":[1,3,5,-1,-1,-1,-1],"loss_changes":[1.2898594E-1,4.6531925E-1,1.6332065E-1,0E0,0E0,0E0,0E0],"parents":[2147483647,0,0,1,1,2,2],"right_children":[2,4,6,-1,-1,-1,-1],"split_conditions":[4.5E0,5E-1,5E-1,-9.93107E-2,6.4228565E-2,1.0785518E-1,-1.632569E-2],"split_indices":[1,3,3,0,0,0,0],"split_type":[0,0,0,0,0,0,0],"sum_hessian":[7.437504E0,4.4713964E0,2.9661074E0,1.6577204E0,2.813676E0,1.8923111E0,1.0737964E0],"tree_param":{"num_deleted":"0","num_feature":"5","num_nodes":"7","size_leaf_vector":"0"}},{"base_weights":[-1.6778523E-1,6.030576E-3,-3.0135244E-1],"categories":[],"categories_nodes":[],"categories_segments":[],"categories_sizes":[],"default_left":[1,0,0],"id":111,"left_children":[1,-1,-1],"loss_changes":[9.855354E-2,0E0,0E0],"parents":[2147483647,0,0],"right_children":[2,-1,-1],"split_conditions":[5E-1,1.8091728E-3,-9.040573E-2],"split_indices":[3,0,0],"split_type":[0,0,0],"sum_hessian":[3.166773E0,1.7909698E0,1.3758032E0],"tree_param":{"num_deleted":"0","num_feature":"5","num_nodes":"3","size_leaf_vector":"0"}},{"base_weights":[-1.1003382E-1,1.6495304E-1,-3.552536E-1],"categories":[],"categories_nodes":[],"categories_segments":[],"categories_sizes":[],"default_left":[1,0,0],"id":112,"left_children":[1,-1,-1],"loss_changes":[3.4580323E-1,0E0,0E0],"parents":[2147483647,0,0],"right_children":[2,-1,-1],"split_conditions":[1.5E0,4.9485914E-2,-1.06576085E-1],"split_indices":[1,0,0],"split_type":[0,0,0],"sum_hessian":[3.2591372E0,1.6906198E0,1.5685173E0],"tree_param":{"num_deleted":"0","num_feature":"5","num_nodes":"3","size_leaf_vector":"0"}},{"base_weights":[9.211446E-3,1.1561707E-1,-1.05315425E-1,-2.767406E-2,2.4078912E-1,-3.0540463E-1,1.27853E-1],"categories":[],"categories_nodes":[],"categories_segments":[],"categories_sizes":[],"default_left":[1,1,1,0,0,0,0],"id":113,"left_children":[1,3,5,-1,-1,-1,-1],"loss_changes":[1.00250885E-1,8.241102E-2,2.2585852E-1,0E0,0E0,0E0,0E0],"parents":[2147483647,0,0,1,1,2,2],"right_children":[2,4,6,-1,-1,-1,-1],"split_conditions":[2.5E0,1.25E1,5E-1,-8.302218E-3,7.223674E-2,-9.162139E-2,3.83559E-2],"split_indices":[1,2,3,0,0,0,0],"split_type":[0,0,0,0,0,0,0],"sum_hessian":[6.2273455E0,3.2231936E0,3.0041518E0,1.8659979E0,1.3571956E0,1.4500315E0,1.5541204E0],"tree_param":{"num_deleted":"0","num_feature":"5","num_nodes":"7","size_leaf_vector":"0"}},{"base_weights":[2.7482348E-2,-6.891497E-2,1.3783237E-1,6.938142E-2,-2.8746343E-1,2.0802166E-1,-1.0868089E-2,-2.9344055E-1,3.0930114E-1],"categories":[],"categories_nodes":[],"categories_segments":[],"categories_sizes":[],"default_left":[1,1,1,1,0,0,0,0,0],"id":114,"left_children":[1,3,5,7,-1,-1,-1,-1,-1],"loss_changes":[1.0147448E-1,1.7957923E-1,4.781677E-2,4.4246122E-1,0E0,0E0,0E0,0E0,0E0],"parents":[2147483647,0,0,1,1,2,2,3,3],"right_children":[2,4,6,8,-1,-1,-1,-1,-1],"split_conditions":[5E-1,3.5E0,1.15E1,2E0,-8.623903E-2,6.24065E-2,-3.260427E-3,-8.803217E-2,9.279034E-2],"split_indices":[4,0,2,0,0,0,0,0,0],"split_type":[0,0,0,0,0,0,0,0,0],"sum_hessian":[7.6464133E0,4.281636E0,3.3647768E0,3.0402906E0,1.2413459E0,2.0148165E0,1.3499602E0,1.1213839E0,1.9189067E0],"tree_param":{"num_deleted":"0","num_feature":"5","num_nodes":"9","size_leaf_vector":"0"}},{"base_weights":[-1.310316E-1,2.1470368E-2,-2.8339556E-1,3.0281198E-1,-2.6531333E-1],"categories":[],"categories_nodes":[],"categories_segments":[],"categories_sizes":[],"default_left":[1,1,0,0,0],"id":115,"left_children":[1,3,-1,-1,-1],"loss_changes":[1.06185235E-1,3.290584E-1,0E0,0E0,0E0],"parents":[2147483647,0,0,1,1],"right_children":[2,4,-1,-1,-1],"split_conditions":[5E-1,5E-1,-8.501867E-2,9.0843596E-2,-7.9594E-2],"split_indices":[3,4,0,0,0],"split_type":[0,0,0,0,0],"sum_hessian":[3.3080332E0,2.0826159E0,1.2254173E0,1.02307E0,1.059546E0],"tree_param":{"num_deleted":"0","num_feature":"5","num_nodes":"5","size_leaf_vector":"0"}},{"base_weights":[5.874269E-2,-5.8977693E-2,1.495913E-1,-2.9947063E-1,1.2199997E-1,-7.588684E-2,2.657022E-1],"categories":[],"categories_nodes":[],"categories_segments":[],"categories_sizes":[],"default_left":[1,1,1,0,0,0,0],"id":116,"left_children":[1,3,5,-1,-1,-1,-1],"loss_changes":[1.0579391E-1,2.3964937E-1,1.615504E-1,0E0,0E0,0E0,0E0],"parents":[2147483647,0,0,1,1,2,2],"right_children":[2,4,6,-1,-1,-1,-1],"split_conditions":[3.5E0,5E-1,5E-1,-8.9841194E-2,3.6599994E-2,-2.2766052E-2,7.971066E-2],"split_indices":[1,3,4,0,0,0,0],"split_type":[0,0,0,0,0,0,0],"sum_hessian":[8.067208E0,3.666727E0,4.400481E0,1.2933351E0,2.373392E0,1.6135408E0,2.7869403E0],"tree_param":{"num_deleted":"0","num_feature":"5","num_nodes":"7","size_leaf_vector":"0"}},{"base_weights":[9.958408E-2,-2.3194544E-2,2.1924324E-1,-3.1415132E-1,2.0845519E-1,2.4909028E-1,6.6997804E-2],"categories":[],"categories_nodes":[],"categories_segments":[],"categories_sizes":[],"default_left":[1,1,1,0,0,0,0],"id":117,"left_children":[1,3,5,-1,-1,-1,-1],"loss_changes":[1.2122065E-1,3.894056E-1,1.9375533E-3,0E0,0E0,0E0,0E0],"parents":[2147483647,0,0,1,1,2,2],"right_children":[2,4,6,-1,-1,-1,-1],"split_conditions":[4.5E0,5E-1,1.15E1,-9.42454E-2,6.253656E-2,7.472709E-2,2.0099342E-2],"split_indices":[0,4,2,0,0,0,0],"split_type":[0,0,0,0,0,0,0],"sum_hessian":[6.9048924E0,3.8059175E0,3.0989747E0,1.5291394E0,2.2767782E0,2.0591729E0,1.0398018E0],"tree_param":{"num_deleted":"0","num_feature":"5","num_nodes":"7","size_leaf_vector":"0"}},{"base_weights":[-1.4929116E-1,2.0868484E-2,-2.8494012E-1],"categories":[],"categories_nodes":[],"categories_segments":[],"categories_sizes":[],"default_left":[1,0,0],"id":118,"left_children":[1,-1,-1],"loss_changes":[9.730467E-2,0E0,0E0],"parents":[2147483647,0,0],"right_children":[2,-1,-1],"split_conditions":[2E0,6.2605455E-3,-8.548204E-2],"split_indices":[0,0,0],"split_type":[0,0,0],"sum_hessian":[2.9579973E0,1.6874272E0,1.2705703E0],"tree_param":{"num_deleted":"0","num_feature":"5","num_nodes":"3","size_leaf_vector":"0"}},{"base_weights":[-1.0068411E-1,1.491532E-1,-3.3905652E-1],"categories":[],"categories_nodes":[],"categories_segments":[],"categories_sizes":[],"default_left":[1,0,0],"id":119,"left_children":[1,-1,-1],"loss_changes":[2.943815E-1,0E0,0E0],"parents":[2147483647,0,0],"right_children":[2,-1,-1],"split_conditions":[1.5E0,4.4745963E-2,-1.0171696E-1],"split_indices":[1,0,0],"split_type":[0,0,0],"sum_hessian":[3.0939116E0,1.6933755E0,1.4005362E0],"tree_param":{"num_deleted":"0","num_feature":"5","num_nodes":"3","size_leaf_vector":"0"}},{"base_weights":[1.073836E-2,9.345326E-2,-1.3223752E-1,9.299788E-3,2.032991E-1,1.3058946E-1,-1.3888739E-1],"categories":[],"categories_nodes":[],"categories_segments":[],"categories_sizes":[],"default_left":[1,1,0,1,0,0,0],"id":120,"left_children":[1,3,-1,5,-1,-1,-1],"loss_changes":[9.4383694E-2,4.414258E-2,0E0,8.765205E-2,0E0,0E0,0E0],"parents":[2147483647,0,0,1,1,3,3],"right_children":[2,4,-1,6,-1,-1,-1],"split_conditions":[3.5E0,1.1E1,-3.9671257E-2,4E0,6.0989734E-2,3.9176837E-2,-4.1666217E-2],"split_indices":[0,2,0,2,0,0,0],"split_type":[0,0,0,0,0,0,0],"sum_hessian":[5.935907E0,3.979844E0,1.9560626E0,2.867613E0,1.112231E0,1.6422235E0,1.2253896E0],"tree_param":{"num_deleted":"0","num_feature":"5","num_nodes":"7","size_leaf_vector":"0"}},{"base_weights":[1.955422E-2,1.0643456E-1,-1.04611926E-1,-1.1122607E-1,2.4831572E-1,-1.408511E-1,-1.014693E-3,3.1748217E-1,4.6076957E-2],"categories":[],"categories_nodes":[],"categories_segments":[],"categories_sizes":[],"default_left":[1,1,1,0,1,0,0,0,0],"id":121,"left_children":[1,3,5,-1,7,-1,-1,-1,-1],"loss_changes":[9.841397E-2,1.8992701E-1,1.4254689E-2,0E0,3.4205392E-2,0E0,0E0,0E0,0E0],"parents":[2147483647,0,0,1,1,2,2,4,4],"right_children":[2,4,6,-1,8,-1,-1,-1,-1],"split_conditions":[3.5E0,5E-1,1.1E1,-3.336782E-2,1.15E1,-4.225533E-2,-3.0440793E-4,9.524465E-2,1.3823087E-2],"split_indices":[1,4,2,0,2,0,0,0,0],"split_type":[0,0,0,0,0,0,0,0,0],"sum_hessian":[7.0907407E0,4.255752E0,2.8349886E0,1.764652E0,2.4911E0,1.8338795E0,1.001109E0,1.4316365E0,1.0594635E0],"tree_param":{"num_deleted":"0","num_feature":"5","num_nodes":"9","size_leaf_vector":"0"}},{"base_weights":[-1.24375544E-1,2.1264559E-2,-2.686744E-1],"categories":[],"categories_nodes":[],"categories_segments":[],"categories_sizes":[],"default_left":[1,0,0],"id":122,"left_children":[1,-1,-1],"loss_changes":[9.038956E-2,0E0,0E0],"parents":[2147483647,0,0],"right_children":[2,-1,-1],"split_conditions":[5E-1,6.379368E-3,-8.0602325E-2],"split_indices":[3,0,0],"split_type":[0,0,0],"sum_hessian":[3.0291924E0,1.9319354E0,1.0972571E0],"tree_param":{"num_deleted":"0","num_feature":"5","num_nodes":"3","size_leaf_vector":"0"}},{"base_weights":[5.4428652E-2,-7.234735E-2,1.4335464E-1,-2.8099865E-1,9.583076E-2,2.3119324E-1,-1.8233322E-2],"categories":[],"categories_nodes":[],"categories_segments":[],"categories_sizes":[],"default_left":[1,1,1,0,0,0,0],"id":123,"left_children":[1,3,5,-1,-1,-1,-1],"loss_changes":[1.0767889E-1,1.751159E-1,8.0980286E-2,0E0,0E0,0E0,0E0],"parents":[2147483647,0,0,1,1,2,2],"right_children":[2,4,6,-1,-1,-1,-1],"split_conditions":[3.5E0,5E-1,4.5E0,-8.4299594E-2,2.874923E-2,6.935798E-2,-5.4699965E-3],"split_indices":[0,4,0,0,0,0,0],"split_type":[0,0,0,0,0,0,0],"sum_hessian":[7.6313925E0,3.223001E0,4.4083915E0,1.1390238E0,2.0839772E0,2.5768616E0,1.8315301E0],"tree_param":{"num_deleted":"0","num_feature":"5","num_nodes":"7","size_leaf_vector":"0"}},{"base_weights":[9.643253E-2,-1.9720556E-2,2.2775403E-1,-3.1190172E-1,1.944085E-1],"categories":[],"categories_nodes":[],"categories_segments":[],"categories_sizes":[],"default_left":[1,1,0,0,0],"id":124,"left_children":[1,3,-1,-1,-1],"loss_changes":[1.1868408E-1,3.6676E-1,0E0,0E0,0E0],"parents":[2147483647,0,0,1,1],"right_children":[2,4,-1,-1,-1],"split_conditions":[4.5E0,5E-1,6.832621E-2,-9.3570516E-2,5.8322553E-2],"split_indices":[1,3,0,0,0],"split_type":[0,0,0,0,0],"sum_hessian":[6.4863744E0,3.8929305E0,2.5934439E0,1.4532926E0,2.4396381E0],"tree_param":{"num_deleted":"0","num_feature":"5","num_nodes":"5","size_leaf_vector":"0"}},{"base_weights":[-1.3495913E-1,3.2728713E-2,-2.7767503E-1],"categories":[],"categories_nodes":[],"categories_segments":[],"categories_sizes":[],"default_left":[1,0,0],"id":125,"left_children":[1,-1,-1],"loss_changes":[9.971697E-2,0E0,0E0],"parents":[2147483647,0,0],"right_children":[2,-1,-1],